{"learner":{"attributes":{"best_iteration":"3","best_score":"1.0561496053828674"},"feature_names":["return_1","return_3","return_5","log_return_1","momentum_3","momentum_5","rolling_volatility_5","rolling_volatility_10","atr_5","atr_10","parkinson_volatility_10","range_ratio","body_ratio","upper_wick_ratio","lower_wick_ratio","distance_to_sma_5","distance_to_sma_10","efficiency_ratio_10","efficiency_ratio_50","return_autocorr_10","return_autocorr_3","return_autocorr_5","variance_ratio_hurst_proxy","volume_zscore_20","volume_percentile_20","atr_regime_percentile","session_asia","session_london","session_new_york","cross_momentum_agreement","usd_strength_index","currency_strength_rank"],"feature_types":[],"gradient_booster":{"model":{"cats":{"enc":[],"feature_segments":[],"sorted_idx":[]},"gbtree_model_param":{"num_parallel_tree":"1","num_trees":"12"},"iteration_indptr":[0,3,6,9,12],"tree_info":[0,1,2,0,1,2,0,1,2,0,1,2],"trees":[{"base_weights":[1.3317474E-2,7.8777856E-1,-3.2082602E-2,-4.8455972E-2,1.0648202E0,-3.8083535E-1,3.6838986E-2,1.565629E-2,1.2114428E0,-5.329255E-1,1.6314957E-1,-1.7277563E-1,1.7077045E-1,3.7905943E-2,1.0315636E-1,3.4442697E-2,-4.7495414E-2,7.292062E-2,-2.639202E-2,-1.7346198E-2,7.847712E-2,3.1518217E-2,-8.940886E-3],"categories":[],"categories_nodes":[],"categories_segments":[],"categories_sizes":[],"default_left":[0,0,0,0,0,0,0,0,0,0,0,0,0,0,0,0,0,0,0,0,0,0,0],"id":0,"left_children":[1,3,5,-1,7,9,11,-1,13,15,17,19,21,-1,-1,-1,-1,-1,-1,-1,-1,-1,-1],"loss_changes":[1.6762783E1,1.0836517E1,1.0845663E1,0E0,2.615345E0,6.2463837E0,1.0618534E1,0E0,4.8004532E-1,3.6756573E0,6.5852365E0,7.7114234E0,1.4588964E1,0E0,0E0,0E0,0E0,0E0,0E0,0E0,0E0,0E0,0E0],"parents":[2147483647,0,0,1,1,2,2,4,4,5,5,6,6,8,8,9,9,10,10,11,11,12,12],"right_children":[2,4,6,-1,8,10,12,-1,14,16,18,20,22,-1,-1,-1,-1,-1,-1,-1,-1,-1,-1],"split_conditions":[5.264025E-1,-7.7783986E-4,-5.5525774E-1,-4.8455972E-2,-5.952246E-4,3.4065935E-1,4.7732273E-4,1.565629E-2,1.21212125E-1,1.4372091E-4,1.4473684E-1,1.4870145E0,6.781058E-4,3.7905943E-2,1.0315636E-1,3.4442697E-2,-4.7495414E-2,7.292062E-2,-2.639202E-2,-1.7346198E-2,7.847712E-2,3.1518217E-2,-8.940886E-3],"split_indices":[22,2,20,0,1,14,10,0,17,6,17,22,10,0,0,0,0,0,0,0,0,0,0],"split_type":[0,0,0,0,0,0,0,0,0,0,0,0,0,0,0,0,0,0,0,0,0,0,0],"sum_hessian":[4.7503036E2,2.5399467E1,4.4963092E2,4.0155473E0,2.1383919E1,7.344804E1,3.7618286E2,3.423805E0,1.7960115E1,5.741577E1,1.6032267E1,1.4654185E2,2.29641E2,2.3943849E0,1.556573E1,3.0454493E0,5.4370323E1,6.030449E0,1.0001817E1,1.419346E2,4.607254E0,1.2806885E2,1.0157217E2],"tree_param":{"num_deleted":"0","num_feature":"32","num_nodes":"23","size_leaf_vector":"1"}},{"base_weights":[2.87145E-2,5.1838464E-1,-2.3570287E-1,6.0911846E-1,-4.7557744E-1,-3.0815402E-1,3.643606E-1,7.154256E-1,-5.1357005E-2,1.563514E-2,-4.9706094E-2,-1.5028613E-2,-4.892215E-1,3.5656717E-2,1.1480772E-1,1.2317798E-2,7.111212E-2,5.7164475E-2,-3.1035429E-2,-5.2546863E-2,1.7256884E-2,-4.144682E-2,7.353328E-2,6.577122E-2,-5.068067E-2],"categories":[],"categories_nodes":[],"categories_segments":[],"categories_sizes":[],"default_left":[0,0,0,0,0,0,0,0,0,0,0,0,0,0,0,0,0,0,0,0,0,0,0,0,0],"id":1,"left_children":[1,3,5,7,9,11,13,15,17,-1,-1,19,21,23,-1,-1,-1,-1,-1,-1,-1,-1,-1,-1,-1],"loss_changes":[5.521475E1,1.3773586E1,1.2154395E1,9.68713E0,1.3994913E0,1.3138866E1,1.061256E1,1.1400558E1,5.430109E0,0E0,0E0,1.4300633E1,6.6990585E0,1.3260902E1,0E0,0E0,0E0,0E0,0E0,0E0,0E0,0E0,0E0,0E0,0E0],"parents":[2147483647,0,0,1,1,2,2,3,3,4,4,5,5,6,6,7,7,8,8,11,11,12,12,13,13],"right_children":[2,4,6,8,10,12,14,16,18,-1,-1,20,22,24,-1,-1,-1,-1,-1,-1,-1,-1,-1,-1,-1],"split_conditions":[6.9906993E-4,1E0,7.241379E-1,8.9517087E-1,2.486275E-4,-2.1810915E-1,7.375515E-4,5.2746773E-2,2.8511088E-2,1.563514E-2,-4.9706094E-2,-1.6511187E-4,3.8315648E-1,9.5349655E-4,1.1480772E-1,1.2317798E-2,7.111212E-2,5.7164475E-2,-3.1035429E-2,-5.2546863E-2,1.7256884E-2,-4.144682E-2,7.353328E-2,6.577122E-2,-5.068067E-2],"split_indices":[8,28,17,23,7,19,30,18,18,0,0,15,18,9,0,0,0,0,0,0,0,0,0,0,0],"split_type":[0,0,0,0,0,0,0,0,0,0,0,0,0,0,0,0,0,0,0,0,0,0,0,0,0],"sum_hessian":[4.2449982E2,1.4851216E2,2.7598767E2,1.3644405E2,1.2068115E1,2.466891E2,2.9298561E1,1.1745571E2,1.898833E1,2.0926726E0,9.975443E0,9.4610176E1,1.5207893E2,2.320744E1,6.0911217E0,2.8170313E1,8.928539E1,5.454186E0,1.3534145E1,2.4530745E1,7.007943E1,1.4964424E2,2.434689E0,1.0563423E1,1.2644015E1],"tree_param":{"num_deleted":"0","num_feature":"32","num_nodes":"25","size_leaf_vector":"1"}},{"base_weights":[-2.3001485E-2,-3.8224673E-1,1.382816E-1,-4.2008656E-1,3.2436484E-1,-1.4509468E-1,2.927978E-1,-5.265299E-1,-2.1069384E-1,7.1253926E-2,-3.4323838E-2,-4.540065E-3,-6.8668807E-1,-1.3813472E-1,4.1340438E-1,-4.7024623E-2,-8.471194E-3,-2.3083715E-2,6.323249E-2,2.191852E-2,-3.190433E-2,-6.303243E-2,1.1601394E-2,-4.6624493E-2,1.7748082E-2,4.9942806E-2,7.511035E-3],"categories":[],"categories_nodes":[],"categories_segments":[],"categories_sizes":[],"default_left":[0,0,0,0,0,0,0,0,0,0,0,0,0,0,0,0,0,0,0,0,0,0,0,0,0,0,0],"id":2,"left_children":[1,3,5,7,9,11,13,15,17,-1,-1,19,21,23,25,-1,-1,-1,-1,-1,-1,-1,-1,-1,-1,-1,-1],"loss_changes":[3.0184061E1,4.4517155E0,1.5789868E1,3.3132267E0,4.1231303E0,9.7082E0,1.2170483E1,2.5459175E0,4.3933544E0,0E0,0E0,1.1342258E1,2.3265457E0,8.407665E0,1.222835E1,0E0,0E0,0E0,0E0,0E0,0E0,0E0,0E0,0E0,0E0,0E0,0E0],"parents":[2147483647,0,0,1,1,2,2,3,3,4,4,5,5,6,6,7,7,8,8,11,11,12,12,13,13,14,14],"right_children":[2,4,6,8,10,12,14,16,18,-1,-1,20,22,24,26,-1,-1,-1,-1,-1,-1,-1,-1,-1,-1,-1,-1],"split_conditions":[6.7136827E-4,8.482592E-4,1.3868614E-1,5.2806277E-5,4.8888335E-4,1.8082642E-3,7.1422535E-1,4.878049E-1,1E0,7.1253926E-2,-3.4323838E-2,1.0118473E0,3.2296145E-1,-3.9001215E-1,1.0788418E0,-4.7024623E-2,-8.471194E-3,-2.3083715E-2,6.323249E-2,2.191852E-2,-3.190433E-2,-6.303243E-2,1.1601394E-2,-4.6624493E-2,1.7748082E-2,4.9942806E-2,7.511035E-3],"split_indices":[8,11,13,1,16,2,22,25,28,0,0,22,19,19,22,0,0,0,0,0,0,0,0,0,0,0,0],"split_type":[0,0,0,0,0,0,0,0,0,0,0,0,0,0,0,0,0,0,0,0,0,0,0,0,0,0,0],"sum_hessian":[5.1903986E2,1.6039738E2,3.586425E2,1.5262941E2,7.7679834E0,1.26573296E2,2.3206918E2,1.00186E2,5.244341E1,4.330637E0,3.4373467E0,1.01293846E2,2.5279451E1,5.0715435E1,1.8135374E2,8.710005E1,1.3085943E1,4.931973E1,3.123681E0,5.953873E1,4.175511E1,2.2583708E1,2.695743E0,2.2412045E1,2.8303389E1,1.08674675E2,7.267908E1],"tree_param":{"num_deleted":"0","num_feature":"32","num_nodes":"27","size_leaf_vector":"1"}},{"base_weights":[-2.0382728E-2,-6.992815E-2,7.9652727E-1,-1.865554E-1,1.19047485E-1,1.2459857E0,2.3126237E-1,-2.789482E-1,1.1946169E-1,-4.7665414E-1,1.9331321E-1,1.0731527E-1,3.489839E-2,8.551143E-2,-1.4720395E-1,-9.885846E-3,-4.6826303E-2,3.6860686E-2,-1.0852214E-2,-4.9790204E-2,4.2542625E-2,9.943717E-2,8.636117E-3,-5.1924624E-2,5.612316E-2],"categories":[],"categories_nodes":[],"categories_segments":[],"categories_sizes":[],"default_left":[0,0,0,0,0,0,0,0,0,0,0,0,0,0,0,0,0,0,0,0,0,0,0,0,0],"id":3,"left_children":[1,3,5,7,9,11,13,15,17,19,21,-1,-1,-1,23,-1,-1,-1,-1,-1,-1,-1,-1,-1,-1],"loss_changes":[2.0693743E1,1.0638048E1,7.1401615E0,8.465663E0,8.251354E0,6.561508E-1,4.652149E0,1.0846872E1,6.145449E0,3.377675E0,1.4622702E1,0E0,0E0,0E0,4.989493E0,0E0,0E0,0E0,0E0,0E0,0E0,0E0,0E0,0E0,0E0],"parents":[2147483647,0,0,1,1,2,2,3,3,4,4,5,5,6,6,7,7,8,8,9,9,10,10,14,14],"right_children":[2,4,6,8,10,12,14,16,18,20,22,-1,-1,-1,24,-1,-1,-1,-1,-1,-1,-1,-1,-1,-1],"split_conditions":[1.1541853E-3,-1.0976723E-2,2.9500398E-1,1.4915791E-1,-1.3480376E-3,2.7327278E-1,1.0769231E-1,6.781058E-4,1.2138728E-1,1.5619097E0,-8.326709E-4,1.0731527E-1,3.489839E-2,8.551143E-2,7.432563E-1,-9.885846E-3,-4.6826303E-2,3.6860686E-2,-1.0852214E-2,-4.9790204E-2,4.2542625E-2,9.943717E-2,8.636117E-3,-5.1924624E-2,5.612316E-2],"split_indices":[15,20,21,19,16,20,13,10,18,22,15,0,0,0,22,0,0,0,0,0,0,0,0,0,0],"split_type":[0,0,0,0,0,0,0,0,0,0,0,0,0,0,0,0,0,0,0,0,0,0,0,0,0],"sum_hessian":[5.0890677E2,4.8066873E2,2.8238058E1,2.9723898E2,1.8342973E2,1.5059535E1,1.3178523E1,2.2837608E2,6.8862915E1,1.9732534E1,1.6369719E2,1.2884136E1,2.1753993E0,3.5336003E0,9.644923E0,1.5246149E2,7.59146E1,2.9111244E1,3.975167E1,1.7575613E1,2.1569207E0,1.129139E1,1.524058E2,6.20892E0,3.4360027E0],"tree_param":{"num_deleted":"0","num_feature":"32","num_nodes":"25","size_leaf_vector":"1"}},{"base_weights":[1.364501E-2,5.546006E-1,-1.6179797E-1,-4.7389086E-2,6.2933016E-1,-6.5718085E-2,-5.2977707E-2,-6.55109E-2,7.6003677E-1,4.448145E-1,-1.6206983E-1,8.881216E-2,-2.6752902E-2,7.33492E-2,1.9436538E-2,-5.0470714E-2,6.972443E-2,-1.8130522E-2,4.9470782E-2],"categories":[],"categories_nodes":[],"categories_segments":[],"categories_sizes":[],"default_left":[0,0,0,0,0,0,0,0,0,0,0,0,0,0,0,0,0,0,0],"id":4,"left_children":[1,3,5,-1,7,9,-1,11,13,15,17,-1,-1,-1,-1,-1,-1,-1,-1],"loss_changes":[4.0840755E1,9.405045E0,1.55826845E1,0E0,9.078957E0,1.3538632E1,0E0,5.6384573E0,6.5693016E0,2.0624214E1,1.1781221E1,0E0,0E0,0E0,0E0,0E0,0E0,0E0,0E0],"parents":[2147483647,0,0,1,1,2,2,4,4,5,5,7,7,8,8,9,9,10,10],"right_children":[2,4,6,-1,8,10,-1,12,14,16,18,-1,-1,-1,-1,-1,-1,-1,-1],"split_conditions":[1.9512194E-1,8.982989E-5,1.3971609E-3,-4.7389086E-2,5.7028696E-2,-5.8133924E-1,-5.2977707E-2,3.3028075E-4,1.2298336E-4,-7.110694E-1,8.741847E-4,8.881216E-2,-2.6752902E-2,7.33492E-2,1.9436538E-2,-5.0470714E-2,6.972443E-2,-1.8130522E-2,4.9470782E-2],"split_indices":[25,6,9,0,18,20,0,11,16,20,10,0,0,0,0,0,0,0,0],"split_type":[0,0,0,0,0,0,0,0,0,0,0,0,0,0,0,0,0,0,0],"sum_hessian":[4.283791E2,1.0437897E2,3.2400012E2,5.961035E0,9.841793E1,2.7276193E2,5.1238194E1,1.5661203E1,8.275673E1,4.2730755E1,2.3003117E2,2.332921E0,1.3328282E1,6.2904808E1,1.9851923E1,1.2001029E1,3.0729725E1,2.1311153E2,1.6919647E1],"tree_param":{"num_deleted":"0","num_feature":"32","num_nodes":"19","size_leaf_vector":"1"}},{"base_weights":[-1.4027401E-2,-1.7934483E-1,3.2868597E-1,-2.8266597E-1,1.4692618E-1,-6.2707716E-1,4.358557E-1,5.8784608E-2,-2.9884657E-1,9.379739E-1,-1.6843219E-1,1.1442063E-2,-6.019646E-2,2.0016776E-1,8.338218E-1,-3.6012784E-2,-1.5158246E-2,5.4840297E-3,9.10148E-2,3.591519E-2,-3.3078097E-2,6.022468E-2,-4.4052405E-3,7.620435E-2,-3.0079624E-2],"categories":[],"categories_nodes":[],"categories_segments":[],"categories_sizes":[],"default_left":[0,0,0,0,0,0,0,0,0,0,0,0,0,0,0,0,0,0,0,0,0,0,0,0,0],"id":5,"left_children":[1,3,5,7,9,11,13,-1,15,17,19,-1,-1,21,23,-1,-1,-1,-1,-1,-1,-1,-1,-1,-1],"loss_changes":[2.9919977E1,1.204905E1,1.787682E1,4.678978E0,2.1693163E1,1.8202868E0,1.4382975E1,0E0,4.338854E0,4.22077E0,9.651164E0,0E0,0E0,1.3969068E1,8.600811E0,0E0,0E0,0E0,0E0,0E0,0E0,0E0,0E0,0E0,0E0],"parents":[2147483647,0,0,1,1,2,2,3,3,4,4,5,5,6,6,8,8,9,9,10,10,13,13,14,14],"right_children":[2,4,6,8,10,12,14,-1,16,18,20,-1,-1,22,24,-1,-1,-1,-1,-1,-1,-1,-1,-1,-1],"split_conditions":[6.739193E-4,1E0,5.3958094E-1,-1.0425713E-3,-3.3836224E-4,1.71875E-1,3.5206825E-1,5.8784608E-2,1.9512194E-1,6.8939273E-4,-2.2562239E-1,1.1442063E-2,-6.019646E-2,2.8125E-1,1.84577E0,-3.6012784E-2,-1.5158246E-2,5.4840297E-3,9.10148E-2,3.591519E-2,-3.3078097E-2,6.022468E-2,-4.4052405E-3,7.620435E-2,-3.0079624E-2],"split_indices":[10,27,22,30,16,12,21,0,25,8,19,0,0,12,23,0,0,0,0,0,0,0,0,0,0],"split_type":[0,0,0,0,0,0,0,0,0,0,0,0,0,0,0,0,0,0,0,0,0,0,0,0,0],"sum_hessian":[5.26054E2,3.5519324E2,1.7086076E2,2.6986728E2,8.532596E1,1.6737833E1,1.5412292E2,3.5292182E0,2.6633804E2,2.3757677E1,6.156828E1,2.3237987E0,1.4414035E1,9.774077E1,5.6382156E1,1.1043429E2,1.5590376E2,4.688777E0,1.9068901E1,1.7257381E1,4.4310898E1,3.026353E1,6.747724E1,5.1536915E1,4.845242E0],"tree_param":{"num_deleted":"0","num_feature":"32","num_nodes":"25","size_leaf_vector":"1"}},{"base_weights":[4.987592E-3,-4.604581E-2,7.8021884E-1,2.869749E-2,-4.170425E-1,9.2884475E-1,1.3542707E-1,1.1890063E-1,-3.1761187E-1,4.8561502E-2,-4.763683E-1,6.9840113E-3,1.0548838E0,7.755433E-2,-4.5500617E-2,1.7653987E-3,4.4164617E-2,-3.642645E-2,4.0029053E-2,-5.1002458E-2,-1.9716823E-2,9.5544E-2,1.9105267E-2],"categories":[],"categories_nodes":[],"categories_segments":[],"categories_sizes":[],"default_left":[0,0,0,0,0,0,0,0,0,0,0,0,0,0,0,0,0,0,0,0,0,0,0],"id":6,"left_children":[1,3,5,7,9,11,13,15,17,-1,19,-1,21,-1,-1,-1,-1,-1,-1,-1,-1,-1,-1],"loss_changes":[1.9923851E1,1.3116655E1,2.8549995E0,1.2354354E1,5.107503E0,2.5709343E0,4.660781E0,1.3138572E1,9.436828E0,0E0,2.6413536E0,0E0,2.1889153E0,0E0,0E0,0E0,0E0,0E0,0E0,0E0,0E0,0E0,0E0],"parents":[2147483647,0,0,1,1,2,2,3,3,4,4,5,5,6,6,7,7,8,8,10,10,12,12],"right_children":[2,4,6,8,10,12,14,16,18,-1,20,-1,22,-1,-1,-1,-1,-1,-1,-1,-1,-1,-1],"split_conditions":[1.1541853E-3,5.9731543E-1,-2.9415343E-4,7.973467E-4,1.07391264E-4,-2.3114516E-3,-7.19883E-4,1.2056178E0,1E0,4.8561502E-2,-1.8775817E-4,6.9840113E-3,3.2296145E-1,7.755433E-2,-4.5500617E-2,1.7653987E-3,4.4164617E-2,-3.642645E-2,4.0029053E-2,-5.1002458E-2,-1.9716823E-2,9.5544E-2,1.9105267E-2],"split_indices":[15,17,30,7,6,30,0,22,27,0,2,0,19,0,0,0,0,0,0,0,0,0,0],"split_type":[0,0,0,0,0,0,0,0,0,0,0,0,0,0,0,0,0,0,0,0,0,0,0],"sum_hessian":[5.0169394E2,4.7158984E2,3.010411E1,3.9327988E2,7.830997E1,2.4106888E1,5.997224E0,3.125315E2,8.074836E1,3.7826834E0,7.452728E1,3.3606913E0,2.0746197E1,2.5731006E0,3.4241233E0,2.5628864E2,5.624289E1,6.94917E1,1.1256662E1,4.2771828E1,3.1755455E1,1.7323233E1,3.4229639E0],"tree_param":{"num_deleted":"0","num_feature":"32","num_nodes":"23","size_leaf_vector":"1"}},{"base_weights":[2.8050143E-2,2.5364456E-1,-3.0981594E-1,4.4700408E-1,-1.5523402E-1,-3.6146086E-1,7.360864E-1,6.0202837E-1,-8.875122E-3,9.262186E-1,-3.2356352E-1,-8.639782E-2,-5.251709E-1,-3.7019037E-2,9.8061055E-2,1.00931086E-1,3.9083395E-2,4.6012275E-2,-3.915841E-2,-4.0269993E-2,1.1354681E-1,-3.1075642E-2,8.112437E-2,-5.2007645E-2,2.511315E-2,-4.7999263E-2,2.7684078E-2],"categories":[],"categories_nodes":[],"categories_segments":[],"categories_sizes":[],"default_left":[0,0,0,0,0,0,0,0,0,0,0,0,0,0,0,0,0,0,0,0,0,0,0,0,0,0,0],"id":7,"left_children":[1,3,5,7,9,11,13,15,17,19,21,23,25,-1,-1,-1,-1,-1,-1,-1,-1,-1,-1,-1,-1,-1,-1],"loss_changes":[3.3755886E1,2.1059065E1,9.845762E0,1.2762154E1,1.5951921E1,7.5952454E0,5.659484E0,9.467941E0,1.341521E1,9.060843E0,6.9153323E0,1.4759855E1,7.128393E0,0E0,0E0,0E0,0E0,0E0,0E0,0E0,0E0,0E0,0E0,0E0,0E0,0E0,0E0],"parents":[2147483647,0,0,1,1,2,2,3,3,4,4,5,5,6,6,7,7,8,8,9,9,10,10,11,11,12,12],"right_children":[2,4,6,8,10,12,14,16,18,20,22,24,26,-1,-1,-1,-1,-1,-1,-1,-1,-1,-1,-1,-1,-1,-1],"split_conditions":[1E0,1E0,9.188034E-1,4.327196E-4,-5.804827E-1,-2.1810915E-1,1.1710585E0,2.5E-2,-3.970097E-1,7.6071714E-4,8.232673E-1,-4.447692E-2,3.122179E-1,-3.7019037E-2,9.8061055E-2,1.00931086E-1,3.9083395E-2,4.6012275E-2,-3.915841E-2,-4.0269993E-2,1.1354681E-1,-3.1075642E-2,8.112437E-2,-5.2007645E-2,2.511315E-2,-4.7999263E-2,2.7684078E-2],"split_indices":[28,27,12,6,20,19,23,14,19,11,20,23,20,0,0,0,0,0,0,0,0,0,0,0,0,0,0],"split_type":[0,0,0,0,0,0,0,0,0,0,0,0,0,0,0,0,0,0,0,0,0,0,0,0,0,0,0],"sum_hessian":[4.408393E2,2.644886E2,1.7635072E2,1.795064E2,8.4982185E1,1.6867618E2,7.674549E0,1.3371521E2,4.579119E1,1.0839584E1,7.41426E1,6.350456E1,1.05171616E2,2.2416258E0,5.4329233E0,1.8143461E1,1.1557175E2,2.05826E1,2.5208591E1,2.7746873E0,8.064898E0,7.138941E1,2.753189E0,2.6111624E1,3.7392933E1,9.714058E1,8.031037E0],"tree_param":{"num_deleted":"0","num_feature":"32","num_nodes":"27","size_leaf_vector":"1"}},{"base_weights":[-1.22720655E-2,-9.4938904E-2,7.9192686E-1,-3.7730175E-1,4.7529135E-3,8.9881316E-2,7.3638566E-2,-4.9989367E-1,5.4434117E-2,7.590836E-2,-6.2656355E-1,8.181071E-2,-5.9649758E-2,-4.820311E-2,-1.98238E-2,8.719417E-2,-1.4724634E-2,1.5000455E-2,-2.0669732E-2,2.4847193E-2,-5.9619717E-2],"categories":[],"categories_nodes":[],"categories_segments":[],"categories_sizes":[],"default_left":[0,0,0,0,0,0,0,0,0,0,0,0,0,0,0,0,0,0,0,0,0],"id":8,"left_children":[1,3,5,7,9,-1,11,13,15,17,19,-1,-1,-1,-1,-1,-1,-1,-1,-1,-1],"loss_changes":[3.4940895E1,1.3413717E1,1.1586084E1,6.6080513E0,1.591028E1,0E0,1.3624774E1,2.3591003E0,7.214065E0,1.1920439E1,4.2218103E0,0E0,0E0,0E0,0E0,0E0,0E0,0E0,0E0,0E0,0E0],"parents":[2147483647,0,0,1,1,2,2,3,3,4,4,6,6,7,7,8,8,9,9,10,10],"right_children":[2,4,6,8,10,-1,12,14,16,18,20,-1,-1,-1,-1,-1,-1,-1,-1,-1,-1],"split_conditions":[1.4653188E-3,1.9512194E-1,1.4378129E-3,4.432771E-4,1.8082642E-3,8.9881316E-2,1.0603448E-1,6.750675E-5,6.983355E-4,4.874657E-1,-1.438589E0,8.181071E-2,-5.9649758E-2,-4.820311E-2,-1.98238E-2,8.719417E-2,-1.4724634E-2,1.5000455E-2,-2.0669732E-2,2.4847193E-2,-5.9619717E-2],"split_indices":[9,25,7,7,2,0,18,1,9,21,23,0,0,0,0,0,0,0,0,0,0],"split_type":[0,0,0,0,0,0,0,0,0,0,0,0,0,0,0,0,0,0,0,0,0],"sum_hessian":[5.234495E2,4.7545734E2,4.799222E1,1.2333731E2,3.5212003E2,3.244856E1,1.5543664E1,9.593779E1,2.7399519E1,3.1724338E2,3.4876625E1,7.086609E0,8.457055E0,6.7190094E1,2.87477E1,4.46091E0,2.293861E1,2.3817065E2,7.907273E1,3.7386024E0,3.1138021E1],"tree_param":{"num_deleted":"0","num_feature":"32","num_nodes":"21","size_leaf_vector":"1"}},{"base_weights":[9.2171744E-4,-3.9768714E-2,7.005908E-1,1.4663268E-2,-5.131039E-1,9.336456E-2,1.6893049E-1,9.416047E-2,-3.6212918E-1,4.7027683E-1,-6.562392E-1,7.2545685E-2,-1.3776283E-1,4.3343855E-3,9.845584E-2,4.8963852E-2,-3.3815768E-2,8.892778E-2,-4.0394835E-2,-5.6562588E-2,1.6942343E-2,-4.98231E-2,5.0557774E-2],"categories":[],"categories_nodes":[],"categories_segments":[],"categories_sizes":[],"default_left":[0,0,0,0,0,0,0,0,0,0,0,0,0,0,0,0,0,0,0,0,0,0,0],"id":9,"left_children":[1,3,5,7,9,-1,11,13,15,17,19,-1,21,-1,-1,-1,-1,-1,-1,-1,-1,-1,-1],"loss_changes":[1.3865506E1,1.1866411E1,6.441102E0,1.2428429E1,6.9944477E0,0E0,3.220471E0,1.5495549E1,4.5245333E0,4.700217E0,1.9962616E0,0E0,4.3251004E0,0E0,0E0,0E0,0E0,0E0,0E0,0E0,0E0,0E0,0E0],"parents":[2147483647,0,0,1,1,2,2,3,3,4,4,6,6,7,7,8,8,9,9,10,10,12,12],"right_children":[2,4,6,8,10,-1,12,14,16,18,20,-1,22,-1,-1,-1,-1,-1,-1,-1,-1,-1,-1],"split_conditions":[1.1541853E-3,9.3224965E-4,2.9500398E-1,5.9731543E-1,-5.603442E-1,9.336456E-2,1.0769231E-1,1.5437121E0,1.07391264E-4,2.5089607E-1,2.6759017E-1,7.2545685E-2,7.432563E-1,4.3343855E-3,9.845584E-2,4.8963852E-2,-3.3815768E-2,8.892778E-2,-4.0394835E-2,-5.6562588E-2,1.6942343E-2,-4.98231E-2,5.0557774E-2],"split_indices":[15,10,21,17,21,0,13,22,6,17,20,0,22,0,0,0,0,0,0,0,0,0,0],"split_type":[0,0,0,0,0,0,0,0,0,0,0,0,0,0,0,0,0,0,0,0,0,0,0],"sum_hessian":[4.850458E2,4.5927884E2,2.5766973E1,4.1277957E2,4.6499268E1,1.30884E1,1.2678573E1,3.4148233E2,7.129723E1,5.6178055E0,4.0881462E1,3.1479573E0,9.530615E0,3.308901E2,1.0592246E1,3.6403627E0,6.765687E1,3.3047073E0,2.313098E0,3.879669E1,2.08477E0,5.963681E0,3.566934E0],"tree_param":{"num_deleted":"0","num_feature":"32","num_nodes":"23","size_leaf_vector":"1"}},{"base_weights":[-2.047452E-2,2.830758E-1,-2.5800407E-1,3.854872E-1,-2.963132E-1,1.5314732E-1,-3.8133782E-1,8.140622E-1,2.5762063E-1,6.1455056E-2,-5.533427E-1,-5.0445307E-2,5.6209296E-1,6.418365E-2,-4.112896E-1,8.1304565E-2,-4.520171E-2,1.5455987E-2,1.1286981E-1,1.4929141E-2,-5.067698E-2,5.8516014E-2,-4.4082917E-2,-1.1852631E-4,-4.0673804E-2],"categories":[],"categories_nodes":[],"categories_segments":[],"categories_sizes":[],"default_left":[0,0,0,0,0,0,0,0,0,0,0,0,0,0,0,0,0,0,0,0,0,0,0,0,0],"id":10,"left_children":[1,3,5,7,9,11,13,15,17,-1,19,-1,21,-1,23,-1,-1,-1,-1,-1,-1,-1,-1,-1,-1],"loss_changes":[3.1120691E1,1.1358959E1,1.2334856E1,8.63936E0,8.368219E0,1.8487453E1,6.942436E0,1.0794615E1,9.076103E0,0E0,1.5390377E0,0E0,7.511426E0,0E0,7.2668686E0,0E0,0E0,0E0,0E0,0E0,0E0,0E0,0E0,0E0,0E0],"parents":[2147483647,0,0,1,1,2,2,3,3,4,4,5,5,6,6,7,7,8,8,10,10,12,12,14,14],"right_children":[2,4,6,8,10,12,14,16,18,-1,20,-1,22,-1,24,-1,-1,-1,-1,-1,-1,-1,-1,-1,-1],"split_conditions":[5.365854E-1,1E0,-5.417929E-1,-4.1068122E-1,-5.2580185E-4,-6.909689E-1,-1.8307081E-3,2.160503E-4,5E-1,6.1455056E-2,6.2431087E-4,-5.0445307E-2,1.125859E-3,6.418365E-2,4.0377557E-2,8.1304565E-2,-4.520171E-2,1.5455987E-2,1.1286981E-1,1.4929141E-2,-5.067698E-2,5.8516014E-2,-4.4082917E-2,-1.1852631E-4,-4.0673804E-2],"split_indices":[25,28,20,20,0,20,0,2,25,0,9,0,9,0,18,0,0,0,0,0,0,0,0,0,0],"split_type":[0,0,0,0,0,0,0,0,0,0,0,0,0,0,0,0,0,0,0,0,0,0,0,0,0],"sum_hessian":[4.2960638E2,1.8850943E2,2.4109694E2,1.6047835E2,2.803109E1,5.5577923E1,1.8551901E2,3.564367E1,1.2483467E2,5.0650797E0,2.2966011E1,1.8871046E1,3.670688E1,3.9422703E0,1.8157674E2,3.1314415E1,4.3292565E0,1.19336075E2,5.4986E0,2.1138644E0,2.0852146E1,3.2157204E1,4.549673E0,3.498572E1,1.4659102E2],"tree_param":{"num_deleted":"0","num_feature":"32","num_nodes":"25","size_leaf_vector":"1"}},{"base_weights":[1.2780452E-2,-3.106349E-1,1.496524E-1,5.960528E-1,-3.4340754E-1,7.272146E-2,5.50979E-1,-2.2435724E-3,7.728249E-2,2.210189E-1,-3.7112996E-1,1.3770644E-1,-4.617544E-1,9.05158E-1,-1.3464794E-1,6.541211E-2,-4.572003E-2,-2.0907585E-2,-4.362687E-2,1.2417657E-3,3.595342E-2,-5.0509747E-2,1.6665617E-2,-1.6158728E-2,8.135528E-2,-5.8653638E-2,5.5282053E-2],"categories":[],"categories_nodes":[],"categories_segments":[],"categories_sizes":[],"default_left":[0,0,0,0,0,0,0,0,0,0,0,0,0,0,0,0,0,0,0,0,0,0,0,0,0,0,0],"id":11,"left_children":[1,3,5,7,9,11,13,-1,-1,15,17,19,21,23,25,-1,-1,-1,-1,-1,-1,-1,-1,-1,-1,-1,-1],"loss_changes":[2.3035074E1,4.8030777E0,1.1246718E1,1.3580115E0,2.4289246E0,1.0758477E1,1.4364719E1,0E0,0E0,4.08391E0,2.598875E0,1.0478485E1,3.9514928E0,5.0077457E0,1.0809745E1,0E0,0E0,0E0,0E0,0E0,0E0,0E0,0E0,0E0,0E0,0E0,0E0],"parents":[2147483647,0,0,1,1,2,2,3,3,4,4,5,5,6,6,9,9,10,10,11,11,12,12,13,13,14,14],"right_children":[2,4,6,8,10,12,14,-1,-1,16,18,20,22,24,26,-1,-1,-1,-1,-1,-1,-1,-1,-1,-1,-1,-1],"split_conditions":[6.7136827E-4,-1.3583002E-3,1.4010704E-3,8.53827E-2,-5.720323E-1,1.8082642E-3,1.5875285E-3,-2.2435724E-3,7.728249E-2,1E0,1.6330275E-1,1E0,3.2296145E-1,3.818034E-2,3.189398E-1,6.541211E-2,-4.572003E-2,-2.0907585E-2,-4.362687E-2,1.2417657E-3,3.595342E-2,-5.0509747E-2,1.6665617E-2,-1.6158728E-2,8.135528E-2,-5.8653638E-2,5.5282053E-2],"split_indices":[8,2,9,18,19,2,1,0,0,26,18,27,19,17,21,0,0,0,0,0,0,0,0,0,0,0,0],"split_type":[0,0,0,0,0,0,0,0,0,0,0,0,0,0,0,0,0,0,0,0,0,0,0,0,0,0,0],"sum_hessian":[5.183225E2,1.537519E2,3.645706E2,4.763988E0,1.4898792E2,3.0691815E2,5.7652435E1,2.1170475E0,2.6469405E0,6.6486783E0,1.4233925E2,2.7430835E2,3.26098E1,3.7803722E1,1.9848713E1,3.7750182E0,2.8736598E0,8.884748E1,5.3491764E1,1.978177E2,7.649064E1,2.6068727E1,6.541073E0,3.3928385E0,3.4410885E1,1.15721855E1,8.276527E0],"tree_param":{"num_deleted":"0","num_feature":"32","num_nodes":"27","size_leaf_vector":"1"}}]},"name":"gbtree"},"learner_model_param":{"base_score":"[2.9102683E-2,-2.0398855E-1,1.7488581E-1]","boost_from_average":"1","num_class":"3","num_feature":"32","num_target":"1"},"objective":{"name":"multi:softprob","softmax_multiclass_param":{"num_class":"3"}}},"version":[3,2,0]}