{"learner":{"attributes":{"best_iteration":"2","best_score":"1.058564922436565"},"feature_names":["return_1","return_3","return_5","log_return_1","momentum_3","momentum_5","rolling_volatility_5","rolling_volatility_10","atr_5","atr_10","parkinson_volatility_10","range_ratio","body_ratio","upper_wick_ratio","lower_wick_ratio","distance_to_sma_5","distance_to_sma_10","efficiency_ratio_10","efficiency_ratio_50","return_autocorr_10","return_autocorr_3","return_autocorr_5","variance_ratio_hurst_proxy","volume_zscore_20","volume_percentile_20","atr_regime_percentile","adx_14","trend_regime_flag","high_volatility_regime_flag","low_volatility_regime_flag","session_asia","session_london","session_new_york","cross_momentum_agreement","usd_strength_index","currency_strength_rank"],"feature_types":[],"gradient_booster":{"model":{"cats":{"enc":[],"feature_segments":[],"sorted_idx":[]},"gbtree_model_param":{"num_parallel_tree":"1","num_trees":"9"},"iteration_indptr":[0,3,6,9],"tree_info":[0,1,2,0,1,2,0,1,2],"trees":[{"base_weights":[1.3317474E-2,-3.0995563E-2,8.185319E-1,7.8302905E-2,-3.1611013E-1,1.2444423E0,2.2449186E-1,1.1193644E0,3.4057822E-2,-3.7089533E-1,9.299984E-2,1.0823418E-1,3.424138E-2,9.1265626E-2,-2.9760402E-1,-1.9117884E-3,1.07398584E-1,5.2205548E-2,-2.5583112E-3,-3.9741773E-2,2.0443418E-3,-5.0320357E-2,3.185207E-2],"categories":[],"categories_nodes":[],"categories_segments":[],"categories_sizes":[],"default_left":[0,0,0,0,0,0,0,0,0,0,0,0,0,0,0,0,0,0,0,0,0,0,0],"id":0,"left_children":[1,3,5,7,9,11,13,15,17,19,-1,-1,-1,-1,21,-1,-1,-1,-1,-1,-1,-1,-1],"loss_changes":[1.7010845E1,1.4115327E1,6.0122223E0,1.50546255E1,1.0597441E1,6.842022E-1,5.8910575E0,3.4314518E0,1.2900603E1,6.08972E0,0E0,0E0,0E0,0E0,2.137764E0,0E0,0E0,0E0,0E0,0E0,0E0,0E0,0E0],"parents":[2147483647,0,0,1,1,2,2,3,3,4,4,5,5,6,6,7,7,8,8,9,9,14,14],"right_children":[2,4,6,8,10,12,14,16,18,20,-1,-1,-1,-1,22,-1,-1,-1,-1,-1,-1,-1,-1],"split_conditions":[1.1541853E-3,4.60684E1,2.9500398E-1,5.264025E-1,1.6765874E-3,2.9309803E-1,1.0769231E-1,1.21212125E-1,3.108108E-2,1.049365E-1,9.299984E-2,1.0823418E-1,3.424138E-2,9.1265626E-2,7.432563E-1,-1.9117884E-3,1.07398584E-1,5.2205548E-2,-2.5583112E-3,-3.9741773E-2,2.0443418E-3,-5.0320357E-2,3.185207E-2],"split_indices":[15,26,21,22,6,19,13,17,18,20,0,0,0,0,22,0,0,0,0,0,0,0,0],"split_type":[0,0,0,0,0,0,0,0,0,0,0,0,0,0,0,0,0,0,0,0,0,0,0],"sum_hessian":[4.7503036E2,4.511632E2,2.3867174E1,3.2666266E2,1.24500534E2,1.3263051E1,1.0604124E1,1.2326561E1,3.143361E2,1.20774765E2,3.725772E0,1.1127335E1,2.135716E0,3.4187722E0,7.185352E0,2.1586225E0,1.0167938E1,2.9466425E1,2.848697E2,9.147687E1,2.9297897E1,4.932062E0,2.2532897E0],"tree_param":{"num_deleted":"0","num_feature":"36","num_nodes":"23","size_leaf_vector":"1"}},{"base_weights":[2.87145E-2,5.1838464E-1,-2.3570287E-1,6.0911846E-1,-4.7557744E-1,-3.0815402E-1,3.643606E-1,-4.7034815E-1,6.7070407E-1,1.563514E-2,-4.9706094E-2,-1.5028613E-2,-4.892215E-1,1.1778309E0,-1.0314324E-1,-4.5581665E-2,-9.174331E-3,5.9269387E-2,-2.461746E-2,-5.2546863E-2,1.7256884E-2,-4.144682E-2,7.353328E-2,1.1935643E-1,2.582622E-2,1.0847658E-1,-3.236799E-2],"categories":[],"categories_nodes":[],"categories_segments":[],"categories_sizes":[],"default_left":[0,0,0,0,0,0,0,0,0,0,0,0,0,0,0,0,0,0,0,0,0,0,0,0,0,0,0],"id":1,"left_children":[1,3,5,7,9,11,13,15,17,-1,-1,19,21,23,25,-1,-1,-1,-1,-1,-1,-1,-1,-1,-1,-1,-1],"loss_changes":[5.521475E1,1.3773586E1,1.2154395E1,9.452686E0,1.3994913E0,1.3138866E1,1.1644042E1,2.1776426E-1,9.182465E0,0E0,0E0,1.4300633E1,6.6990585E0,2.5098429E0,9.416236E0,0E0,0E0,0E0,0E0,0E0,0E0,0E0,0E0,0E0,0E0,0E0,0E0],"parents":[2147483647,0,0,1,1,2,2,3,3,4,4,5,5,6,6,7,7,8,8,11,11,12,12,13,13,14,14],"right_children":[2,4,6,8,10,12,14,16,18,-1,-1,20,22,24,26,-1,-1,-1,-1,-1,-1,-1,-1,-1,-1,-1,-1],"split_conditions":[6.9906993E-4,1E0,7.241379E-1,8.637394E-5,2.486275E-4,-2.1810915E-1,-5.7046145E-1,2.2544018E-5,8.100567E-4,1.563514E-2,-4.9706094E-2,-1.6511187E-4,3.8315648E-1,9.5349655E-4,-1.8323859E-3,-4.5581665E-2,-9.174331E-3,5.9269387E-2,-2.461746E-2,-5.2546863E-2,1.7256884E-2,-4.144682E-2,7.353328E-2,1.1935643E-1,2.582622E-2,1.0847658E-1,-3.236799E-2],"split_indices":[8,32,17,6,7,19,20,2,11,0,0,15,18,9,3,0,0,0,0,0,0,0,0,0,0,0,0],"split_type":[0,0,0,0,0,0,0,0,0,0,0,0,0,0,0,0,0,0,0,0,0,0,0,0,0,0,0],"sum_hessian":[4.2449982E2,1.4851216E2,2.7598767E2,1.3644405E2,1.2068115E1,2.466891E2,2.9298561E1,7.006013E0,1.2943803E2,2.0926726E0,9.975443E0,9.4610176E1,1.5207893E2,1.013827E1,1.916029E1,5.0049696E0,2.0010433E0,1.2100358E2,8.43445E0,2.4530745E1,7.007943E1,1.4964424E2,2.434689E0,6.869482E0,3.2687883E0,2.6818194E0,1.647847E1],"tree_param":{"num_deleted":"0","num_feature":"36","num_nodes":"27","size_leaf_vector":"1"}},{"base_weights":[-2.3001485E-2,-3.8224673E-1,1.382816E-1,-4.2008656E-1,3.2436484E-1,-1.4509468E-1,2.927978E-1,-5.1385796E-1,-1.7256036E-1,7.1253926E-2,-3.4323838E-2,-4.540065E-3,-6.8668807E-1,-1.3813472E-1,4.1340438E-1,-6.9347983E-3,-4.82973E-2,-2.4652082E-2,6.533941E-2,2.191852E-2,-3.190433E-2,-6.303243E-2,1.1601394E-2,-4.6624493E-2,1.7748082E-2,4.9942806E-2,7.511035E-3],"categories":[],"categories_nodes":[],"categories_segments":[],"categories_sizes":[],"default_left":[0,0,0,0,0,0,0,0,0,0,0,0,0,0,0,0,0,0,0,0,0,0,0,0,0,0,0],"id":2,"left_children":[1,3,5,7,9,11,13,15,17,-1,-1,19,21,23,25,-1,-1,-1,-1,-1,-1,-1,-1,-1,-1,-1,-1],"loss_changes":[3.0184061E1,4.4517155E0,1.5789868E1,3.4771996E0,4.1231303E0,9.7082E0,1.2170483E1,4.2051125E0,6.1156497E0,0E0,0E0,1.1342258E1,2.3265457E0,8.407665E0,1.222835E1,0E0,0E0,0E0,0E0,0E0,0E0,0E0,0E0,0E0,0E0,0E0,0E0],"parents":[2147483647,0,0,1,1,2,2,3,3,4,4,5,5,6,6,7,7,8,8,11,11,12,12,13,13,14,14],"right_children":[2,4,6,8,10,12,14,16,18,-1,-1,20,22,24,26,-1,-1,-1,-1,-1,-1,-1,-1,-1,-1,-1,-1],"split_conditions":[6.7136827E-4,8.482592E-4,1.3868614E-1,4.6749294E1,4.8888335E-4,1.8082642E-3,7.1422535E-1,1E-1,4.2263512E-4,7.1253926E-2,-3.4323838E-2,1.0118473E0,3.2296145E-1,-3.9001215E-1,1.0788418E0,-6.9347983E-3,-4.82973E-2,-2.4652082E-2,6.533941E-2,2.191852E-2,-3.190433E-2,-6.303243E-2,1.1601394E-2,-4.6624493E-2,1.7748082E-2,4.9942806E-2,7.511035E-3],"split_indices":[8,11,13,26,16,2,22,24,16,0,0,22,19,19,22,0,0,0,0,0,0,0,0,0,0,0,0],"split_type":[0,0,0,0,0,0,0,0,0,0,0,0,0,0,0,0,0,0,0,0,0,0,0,0,0,0,0],"sum_hessian":[5.1903986E2,1.6039738E2,3.586425E2,1.5262941E2,7.7679834E0,1.26573296E2,2.3206918E2,1.0991419E2,4.2715218E1,4.330637E0,3.4373467E0,1.01293846E2,2.5279451E1,5.0715435E1,1.8135374E2,1.944418E1,9.047001E1,3.8172E1,4.543214E0,5.953873E1,4.175511E1,2.2583708E1,2.695743E0,2.2412045E1,2.8303389E1,1.08674675E2,7.267908E1],"tree_param":{"num_deleted":"0","num_feature":"36","num_nodes":"27","size_leaf_vector":"1"}},{"base_weights":[-2.0786908E-2,-6.930523E-2,7.708814E-1,4.3505365E-3,-4.3208885E-1,-4.3726146E-2,9.283428E-1,-3.0760678E-2,1.125234E0,4.74056E-2,-4.896314E-1,1.2060897E0,3.428534E-1,9.051125E-3,-2.0220675E-2,2.4406893E-2,1.00599915E-1,-5.1765732E-2,-2.112044E-2,1.03419065E-1,3.2952957E-2,-4.4297133E-2,6.2164605E-2],"categories":[],"categories_nodes":[],"categories_segments":[],"categories_sizes":[],"default_left":[0,0,0,0,0,0,0,0,0,0,0,0,0,0,0,0,0,0,0,0,0,0,0],"id":3,"left_children":[1,3,5,7,9,-1,11,13,15,-1,17,19,21,-1,-1,-1,-1,-1,-1,-1,-1,-1,-1],"loss_changes":[1.9643885E1,1.2867948E1,6.6344585E0,1.5825057E1,5.081912E0,0E0,3.9369488E0,1.2487695E1,9.411936E-1,0E0,2.5820217E0,6.8880653E-1,4.325091E0,0E0,0E0,0E0,0E0,0E0,0E0,0E0,0E0,0E0,0E0],"parents":[2147483647,0,0,1,1,2,2,3,3,4,4,6,6,7,7,8,8,10,10,11,11,12,12],"right_children":[2,4,6,8,10,-1,12,14,16,-1,18,20,22,-1,-1,-1,-1,-1,-1,-1,-1,-1,-1],"split_conditions":[1.1541853E-3,5.9731543E-1,1.4545454E-1,1.5437121E0,1.07391264E-4,-4.3726146E-2,3.189398E-1,3.4983112E1,2.6984128E-1,4.74056E-2,-3.001259E-6,2.9766765E-1,3.8970217E-1,9.051125E-3,-2.0220675E-2,2.4406893E-2,1.00599915E-1,-5.1765732E-2,-2.112044E-2,1.03419065E-1,3.2952957E-2,-4.4297133E-2,6.2164605E-2],"split_indices":[15,17,12,22,6,0,21,26,12,0,15,20,21,0,0,0,0,0,0,0,0,0,0],"split_type":[0,0,0,0,0,0,0,0,0,0,0,0,0,0,0,0,0,0,0,0,0,0,0],"sum_hessian":[5.0902982E2,4.8049457E2,2.8535221E1,4.002251E2,8.0269485E1,2.7825797E0,2.575264E1,3.8901202E2,1.1213085E1,3.773682E0,7.64958E1,1.6747787E1,9.004852E0,2.3631934E2,1.5269267E2,2.0164056E0,9.196679E0,4.3955826E1,3.2539974E1,1.4534261E1,2.2135277E0,2.848298E0,6.156554E0],"tree_param":{"num_deleted":"0","num_feature":"36","num_nodes":"23","size_leaf_vector":"1"}},{"base_weights":[1.381411E-2,4.727597E-1,-2.39725E-1,5.7443E-1,-4.9800402E-1,-9.821834E-2,-5.6058323E-1,-4.537674E-1,6.2842494E-1,1.4830258E-2,-4.993982E-2,-1.4236252E-1,1.1910967E-1,-6.1573285E-1,7.0911475E-2,-9.217332E-3,-4.4531405E-2,5.8741476E-2,6.2404047E-3,-1.5939856E-2,6.779179E-2,9.806845E-3,-5.3390272E-2],"categories":[],"categories_nodes":[],"categories_segments":[],"categories_sizes":[],"default_left":[0,0,0,0,0,0,0,0,0,0,0,0,0,0,0,0,0,0,0,0,0,0,0],"id":4,"left_children":[1,3,5,7,9,11,13,15,17,-1,-1,19,-1,21,-1,-1,-1,-1,-1,-1,-1,-1,-1],"loss_changes":[5.0071968E1,1.5398582E1,1.2531902E1,8.005814E0,1.4142835E0,1.3775167E1,7.299427E0,1.9775188E-1,7.664753E0,0E0,0E0,1.082511E1,0E0,3.2129211E0,0E0,0E0,0E0,0E0,0E0,0E0,0E0,0E0,0E0],"parents":[2147483647,0,0,1,1,2,2,3,3,4,4,5,5,6,6,7,7,8,8,11,11,13,13],"right_children":[2,4,6,8,10,12,14,16,18,-1,-1,20,-1,22,-1,-1,-1,-1,-1,-1,-1,-1,-1],"split_conditions":[7.054434E-4,1E0,7.7297527E-4,8.637394E-5,1.6434097E1,1.6959916E-3,9.409449E-1,2.4933802E-4,7.152866E-1,1.4830258E-2,-4.993982E-2,3.3853796E-1,1.1910967E-1,1.0555301E-2,7.0911475E-2,-9.217332E-3,-4.4531405E-2,5.8741476E-2,6.2404047E-3,-1.5939856E-2,6.779179E-2,9.806845E-3,-5.3390272E-2],"split_indices":[8,32,16,6,26,2,12,10,23,0,0,18,0,18,0,0,0,0,0,0,0,0,0],"split_type":[0,0,0,0,0,0,0,0,0,0,0,0,0,0,0,0,0,0,0,0,0,0,0],"sum_hessian":[4.2834302E2,1.5211903E2,2.76224E2,1.3806721E2,1.4051824E1,1.9259209E2,8.3631905E1,6.5193186E0,1.315479E2,2.1180391E0,1.19337845E1,1.8826585E2,4.326232E0,8.1114784E1,2.517114E0,2.0134022E0,4.5059166E0,1.1005142E2,2.1496475E1,1.787888E2,9.477058E0,5.2132483E0,7.5901535E1],"tree_param":{"num_deleted":"0","num_feature":"36","num_nodes":"23","size_leaf_vector":"1"}},{"base_weights":[-1.3673333E-2,-1.8045025E-1,3.3274102E-1,-2.848546E-1,1.5007839E-1,-6.271604E-1,4.40526E-1,-3.6794838E-1,-5.653562E-2,9.345937E-1,-1.6381468E-1,1.062741E-2,-6.0092483E-2,2.064153E-1,8.3483547E-1,-2.4512695E-2,-4.9260456E-2,2.7315184E-2,-2.7584767E-2,6.1916118E-3,9.036711E-2,3.6350265E-2,-3.2750085E-2,6.028833E-2,-3.780879E-3,7.6288745E-2,-3.0037891E-2],"categories":[],"categories_nodes":[],"categories_segments":[],"categories_sizes":[],"default_left":[0,0,0,0,0,0,0,0,0,0,0,0,0,0,0,0,0,0,0,0,0,0,0,0,0,0,0],"id":5,"left_children":[1,3,5,7,9,11,13,15,17,19,21,-1,-1,23,25,-1,-1,-1,-1,-1,-1,-1,-1,-1,-1,-1,-1],"loss_changes":[3.0503246E1,1.23396E1,1.8030066E1,5.1233826E0,2.1378605E1,1.7711282E0,1.4123125E1,2.8402214E0,8.5537E0,4.0546684E0,9.660551E0,0E0,0E0,1.3707895E1,8.604145E0,0E0,0E0,0E0,0E0,0E0,0E0,0E0,0E0,0E0,0E0,0E0,0E0],"parents":[2147483647,0,0,1,1,2,2,3,3,4,4,5,5,6,6,7,7,8,8,9,9,10,10,13,13,14,14],"right_children":[2,4,6,8,10,12,14,16,18,20,22,-1,-1,24,26,-1,-1,-1,-1,-1,-1,-1,-1,-1,-1,-1,-1],"split_conditions":[6.739193E-4,1E0,5.3958094E-1,4.7152588E-4,-3.3836224E-4,1.71875E-1,3.5206825E-1,1.785962E-1,8.918119E-4,6.8939273E-4,-2.2562239E-1,1.062741E-2,-6.0092483E-2,2.8125E-1,1E0,-2.4512695E-2,-4.9260456E-2,2.7315184E-2,-2.7584767E-2,6.1916118E-3,9.036711E-2,3.6350265E-2,-3.2750085E-2,6.028833E-2,-3.780879E-3,7.6288745E-2,-3.0037891E-2],"split_indices":[10,31,22,6,16,12,21,19,8,8,19,0,0,12,24,0,0,0,0,0,0,0,0,0,0,0,0],"split_type":[0,0,0,0,0,0,0,0,0,0,0,0,0,0,0,0,0,0,0,0,0,0,0,0,0,0,0],"sum_hessian":[5.259368E2,3.5534128E2,1.7059557E2,2.7014767E2,8.519359E1,1.67355E1,1.5386006E2,1.9761621E2,7.253147E1,2.378075E1,6.1412838E1,2.3374276E0,1.4398072E1,9.74972E1,5.636287E1,1.6009517E2,3.7521046E1,3.0390947E1,4.2140522E1,4.665987E0,1.9114763E1,1.7217632E1,4.4195206E1,3.0258278E1,6.723892E1,5.1519127E1,4.8437424E0],"tree_param":{"num_deleted":"0","num_feature":"36","num_nodes":"27","size_leaf_vector":"1"}},{"base_weights":[4.1842223E-3,-4.5297787E-2,7.468894E-1,2.835285E-2,-4.126652E-1,-4.2534113E-2,8.861873E-1,1.1943521E-1,-3.2036096E-1,4.5264583E-2,-4.7060463E-1,1.1250801E0,3.297404E-1,1.6977848E-3,4.4885356E-2,-3.6702383E-2,4.050999E-2,-5.029623E-2,-1.9784726E-2,3.1439915E-2,9.617786E-2,-4.3113444E-2,5.8951706E-2],"categories":[],"categories_nodes":[],"categories_segments":[],"categories_sizes":[],"default_left":[0,0,0,0,0,0,0,0,0,0,0,0,0,0,0,0,0,0,0,0,0,0,0],"id":6,"left_children":[1,3,5,7,9,-1,11,13,15,-1,17,19,21,-1,-1,-1,-1,-1,-1,-1,-1,-1,-1],"loss_changes":[1.8514751E1,1.2793532E1,6.0756626E0,1.2566651E1,4.742508E0,0E0,3.4509754E0,1.3585266E1,9.611774E0,0E0,2.495348E0,6.401348E-1,3.9517927E0,0E0,0E0,0E0,0E0,0E0,0E0,0E0,0E0,0E0,0E0],"parents":[2147483647,0,0,1,1,2,2,3,3,4,4,6,6,7,7,8,8,10,10,11,11,12,12],"right_children":[2,4,6,8,10,-1,12,14,16,-1,18,20,22,-1,-1,-1,-1,-1,-1,-1,-1,-1,-1],"split_conditions":[1.1541853E-3,5.9731543E-1,1.4545454E-1,7.973467E-4,1.07391264E-4,-4.2534113E-2,3.189398E-1,1.2056178E0,1E0,4.5264583E-2,-1.8775817E-4,1.7533911E-3,3.8970217E-1,1.6977848E-3,4.4885356E-2,-3.6702383E-2,4.050999E-2,-5.029623E-2,-1.9784726E-2,3.1439915E-2,9.617786E-2,-4.3113444E-2,5.8951706E-2],"split_indices":[15,17,12,7,6,0,21,22,31,0,2,1,21,0,0,0,0,0,0,0,0,0,0],"split_type":[0,0,0,0,0,0,0,0,0,0,0,0,0,0,0,0,0,0,0,0,0,0,0],"sum_hessian":[5.018747E2,4.7140668E2,3.0468E1,3.934498E2,7.795688E1,2.7165875E0,2.7751413E1,3.1248718E2,8.096264E1,3.8680658E0,7.4088806E1,1.8700884E1,9.050529E0,2.5649435E2,5.5992805E1,6.973253E1,1.1230115E1,4.231399E1,3.1774818E1,2.363731E0,1.6337154E1,2.785056E0,6.265473E0],"tree_param":{"num_deleted":"0","num_feature":"36","num_nodes":"23","size_leaf_vector":"1"}},{"base_weights":[2.8830532E-2,4.2287222E-1,-1.9182128E-1,5.048837E-1,-4.7732183E-1,-8.96842E-2,-5.227439E-2,-4.587283E-1,5.5571675E-1,1.3194894E-2,-4.9143273E-2,-1.4980575E-1,9.943694E-1,-9.037454E-3,-4.4619434E-2,7.9251744E-2,3.4874316E-2,-3.643841E-3,-5.208999E-2,-3.757461E-2,1.1050793E-1],"categories":[],"categories_nodes":[],"categories_segments":[],"categories_sizes":[],"default_left":[0,0,0,0,0,0,0,0,0,0,0,0,0,0,0,0,0,0,0,0,0],"id":7,"left_children":[1,3,5,7,9,11,-1,13,15,-1,-1,17,19,-1,-1,-1,-1,-1,-1,-1,-1],"loss_changes":[3.846175E1,1.1962318E1,1.3315294E1,7.4064026E0,1.312731E0,1.5362637E1,0E0,2.0620763E-1,6.8169594E0,0E0,0E0,1.157513E1,7.672184E0,0E0,0E0,0E0,0E0,0E0,0E0,0E0,0E0],"parents":[2147483647,0,0,1,1,2,2,3,3,4,4,5,5,7,7,8,8,11,11,12,12],"right_children":[2,4,6,8,10,12,-1,14,16,-1,-1,18,20,-1,-1,-1,-1,-1,-1,-1,-1],"split_conditions":[7.054434E-4,1E0,1.5069029E-3,8.637394E-5,1.3432837E-1,1.4430577E-3,-5.227439E-2,3.7729097E-4,-1.2994053E0,1.3194894E-2,-4.9143273E-2,1.2125588E-3,7.995453E-4,-9.037454E-3,-4.4619434E-2,7.9251744E-2,3.4874316E-2,-3.643841E-3,-5.208999E-2,-3.757461E-2,1.1050793E-1],"split_indices":[8,32,8,6,12,8,0,8,23,0,0,8,6,0,0,0,0,0,0,0,0],"split_type":[0,0,0,0,0,0,0,0,0,0,0,0,0,0,0,0,0,0,0,0,0],"sum_hessian":[4.4043063E2,1.5776903E2,2.8266162E2,1.4499821E2,1.2770817E1,2.3242809E2,5.0233524E1,6.863661E0,1.3813455E2,2.2089074E0,1.056191E1,2.210315E2,1.1396586E1,2.0045779E0,4.859083E0,2.825937E1,1.0987518E2,1.8388118E2,3.7150326E1,2.3379095E0,9.058678E0],"tree_param":{"num_deleted":"0","num_feature":"36","num_nodes":"21","size_leaf_vector":"1"}},{"base_weights":[-1.2234E-2,-9.589537E-2,8.05205E-1,-4.7377918E-2,-6.378337E-1,9.05345E-2,9.240152E-2,-3.227457E-1,1.0787579E-1,-7.473504E-1,2.7755575E-2,8.294694E-2,-5.8464E-2,-3.2041166E-2,-4.5924052E-4,-1.4161474E-4,3.3418655E-2,-6.223604E-2,-1.5381513E-2],"categories":[],"categories_nodes":[],"categories_segments":[],"categories_sizes":[],"default_left":[0,0,0,0,0,0,0,0,0,0,0,0,0,0,0,0,0,0,0],"id":8,"left_children":[1,3,5,7,9,-1,11,13,15,17,-1,-1,-1,-1,-1,-1,-1,-1,-1],"loss_changes":[3.5944035E1,1.25028515E1,1.1251659E1,1.8784685E1,4.474784E0,0E0,1.3522487E1,3.9020538E0,9.554497E0,4.5327568E-1,0E0,0E0,0E0,0E0,0E0,0E0,0E0,0E0,0E0],"parents":[2147483647,0,0,1,1,2,2,3,3,4,4,6,6,7,7,8,8,9,9],"right_children":[2,4,6,8,10,-1,12,14,16,18,-1,-1,-1,-1,-1,-1,-1,-1,-1],"split_conditions":[1.4653188E-3,1.8082642E-3,1.4378129E-3,6.7136827E-4,5.383889E1,9.05345E-2,1.0603448E-1,4.3569822E-4,1E0,4.820173E-1,2.7755575E-2,8.294694E-2,-5.8464E-2,-3.2041166E-2,-4.5924052E-4,-1.4161474E-4,3.3418655E-2,-6.223604E-2,-1.5381513E-2],"split_indices":[9,2,7,8,26,0,18,7,31,19,0,0,0,0,0,0,0,0,0],"split_type":[0,0,0,0,0,0,0,0,0,0,0,0,0,0,0,0,0,0,0],"sum_hessian":[5.2346014E2,4.7566095E2,4.779917E1,4.3757422E2,3.8086754E1,3.238063E1,1.541854E1,1.5737143E2,2.8020276E2,3.4492012E1,3.5947409E0,7.0596695E0,8.358871E0,1.2615838E2,3.1213053E1,2.0770033E2,7.250243E1,3.2309376E1,2.1826346E0],"tree_param":{"num_deleted":"0","num_feature":"36","num_nodes":"19","size_leaf_vector":"1"}}]},"name":"gbtree"},"learner_model_param":{"base_score":"[2.9102683E-2,-2.0398855E-1,1.7488581E-1]","boost_from_average":"1","num_class":"3","num_feature":"36","num_target":"1"},"objective":{"name":"multi:softprob","softmax_multiclass_param":{"num_class":"3"}}},"version":[3,2,0]}