{"learner":{"attributes":{"best_iteration":"8","best_score":"0.9885688335919867"},"feature_names":["return_1","return_3","return_5","log_return_1","momentum_3","momentum_5","rolling_volatility_5","rolling_volatility_10","atr_5","atr_10","parkinson_volatility_10","range_ratio","body_ratio","upper_wick_ratio","lower_wick_ratio","distance_to_sma_5","distance_to_sma_10","efficiency_ratio_10","efficiency_ratio_50","return_autocorr_10","return_autocorr_3","return_autocorr_5","variance_ratio_hurst_proxy","volume_zscore_20","volume_percentile_20","atr_regime_percentile","adx_14","trend_regime_flag","high_volatility_regime_flag","low_volatility_regime_flag","session_asia","session_london","session_new_york","cross_momentum_agreement","usd_strength_index","currency_strength_rank"],"feature_types":[],"gradient_booster":{"model":{"cats":{"enc":[],"feature_segments":[],"sorted_idx":[]},"gbtree_model_param":{"num_parallel_tree":"1","num_trees":"27"},"iteration_indptr":[0,3,6,9,12,15,18,21,24,27],"tree_info":[0,1,2,0,1,2,0,1,2,0,1,2,0,1,2,0,1,2,0,1,2,0,1,2,0,1,2],"trees":[{"base_weights":[2.1626169E-2,1.6417876E-1,-3.23774E-1,-3.372076E-3,5.7083744E-1,8.8563156E-1,-3.9537483E-1,-1.282542E-1,2.9312024E-1,8.514885E-1,1.4081438E-1,-4.1432637E-3,9.296379E-2,-5.5623615E-1,1.5961066E-1,2.547862E-2,-1.7444475E-2,5.2154116E-2,-7.2562913E-3,-5.1549982E-2,7.733804E-2,-4.9917925E-2,2.9516973E-2,-5.0321348E-2,-1.1403318E-2,-4.8473347E-2,6.970376E-2],"categories":[],"categories_nodes":[],"categories_segments":[],"categories_sizes":[],"default_left":[0,0,0,0,0,0,0,0,0,0,0,0,0,0,0,0,0,0,0,0,0,0,0,0,0,0,0],"id":0,"left_children":[1,3,5,7,9,11,13,15,17,19,21,-1,-1,23,25,-1,-1,-1,-1,-1,-1,-1,-1,-1,-1,-1,-1],"loss_changes":[2.628063E1,2.5738085E1,1.385483E1,9.979085E0,1.3182335E1,2.3988605E0,1.3295124E1,7.676487E0,1.1059818E1,1.2085442E1,8.034147E0,0E0,0E0,3.3701324E0,1.9061762E1,0E0,0E0,0E0,0E0,0E0,0E0,0E0,0E0,0E0,0E0,0E0,0E0],"parents":[2147483647,0,0,1,1,2,2,3,3,4,4,5,5,6,6,7,7,8,8,9,9,10,10,13,13,14,14],"right_children":[2,4,6,8,10,12,14,16,18,20,22,-1,-1,24,26,-1,-1,-1,-1,-1,-1,-1,-1,-1,-1,-1,-1],"split_conditions":[1.6587303E-3,8.3674554E-4,7.7053334E-4,6.064798E-4,3.2454813E-1,9.365542E-1,1.542642E-3,1.5E-1,7.31185E-4,5.258381E-1,1.1871808E-3,-4.1432637E-3,9.296379E-2,5.8487634E-4,2.51634E-1,2.547862E-2,-1.7444475E-2,5.2154116E-2,-7.2562913E-3,-5.1549982E-2,7.733804E-2,-4.9917925E-2,2.9516973E-2,-5.0321348E-2,-1.1403318E-2,-4.8473347E-2,6.970376E-2],"split_indices":[9,10,7,6,21,22,1,24,7,22,8,0,0,34,17,0,0,0,0,0,0,0,0,0,0,0,0],"split_type":[0,0,0,0,0,0,0,0,0,0,0,0,0,0,0,0,0,0,0,0,0,0,0,0,0,0,0],"sum_hessian":[5.316706E2,3.767175E2,1.5495312E2,2.6749597E2,1.09221535E2,8.025518E0,1.469276E2,1.8861783E2,7.8878136E1,6.549601E1,4.3725525E1,2.012628E0,6.01289E0,1.1390906E2,3.3018543E1,3.1143188E1,1.5747464E2,4.040667E1,3.8471462E1,4.356296E0,6.1139713E1,9.648208E0,3.4077316E1,9.642471E1,1.7484343E1,1.5979146E1,1.7039398E1],"tree_param":{"num_deleted":"0","num_feature":"36","num_nodes":"27","size_leaf_vector":"1"}},{"base_weights":[-7.7006076E-3,8.0751824E-1,-1.00580126E-1,-7.5681455E-2,1.2154896E0,-2.709444E-1,3.4961763E-1,-4.33803E-1,1.0277513E-1,4.065689E-1,1.4678974E0,-6.0401654E-1,-6.340447E-2,1.0767968E0,-3.8120222E-1,-4.7279127E-2,1.9340398E-2,-4.099684E-2,9.602514E-2,3.739252E-2,1.3503993E-1,1.48419095E-2,-5.1867988E-2,2.0407647E-2,-3.3374395E-2,1.3189653E-1,3.3957206E-2,3.362417E-2,-5.1092234E-2],"categories":[],"categories_nodes":[],"categories_segments":[],"categories_sizes":[],"default_left":[0,0,0,0,0,0,0,0,0,0,0,0,0,0,0,0,0,0,0,0,0,0,0,0,0,0,0,0,0],"id":1,"left_children":[1,3,5,7,9,11,13,15,-1,17,19,21,23,25,27,-1,-1,-1,-1,-1,-1,-1,-1,-1,-1,-1,-1,-1,-1],"loss_changes":[3.1909885E1,1.5623629E1,2.9106186E1,7.651249E0,5.4353905E0,1.8969711E1,5.5829002E1,1.4462724E0,0E0,6.7494583E0,4.0852585E0,3.8112068E0,1.9321457E1,1.8898521E1,1.1152987E1,0E0,0E0,0E0,0E0,0E0,0E0,0E0,0E0,0E0,0E0,0E0,0E0,0E0,0E0],"parents":[2147483647,0,0,1,1,2,2,3,3,4,4,5,5,6,6,7,7,9,9,10,10,11,11,12,12,13,13,14,14],"right_children":[2,4,6,8,10,12,14,16,-1,18,20,22,24,26,28,-1,-1,-1,-1,-1,-1,-1,-1,-1,-1,-1,-1,-1,-1],"split_conditions":[7.256057E-4,-2.1607138E-1,1.7662768E-3,6.99618E1,-2.4621393E-1,-5.06089E-5,-2.5525037E-4,7.0731705E-1,1.0277513E-1,1.1905272E-4,7.4074075E-2,-1.1174068E-3,-1.1167863E-1,1.3822365E-3,1.6631001E-3,-4.7279127E-2,1.9340398E-2,-4.099684E-2,9.602514E-2,3.739252E-2,1.3503993E-1,1.48419095E-2,-5.1867988E-2,2.0407647E-2,-3.3374395E-2,1.3189653E-1,3.3957206E-2,3.362417E-2,-5.1092234E-2],"split_indices":[8,20,9,26,19,34,1,12,0,34,25,34,20,7,8,0,0,0,0,0,0,0,0,0,0,0,0,0,0],"split_type":[0,0,0,0,0,0,0,0,0,0,0,0,0,0,0,0,0,0,0,0,0,0,0,0,0,0,0,0,0],"sum_hessian":[4.193628E2,4.2105103E1,3.772577E2,1.3561306E1,2.8543797E1,2.7397714E2,1.03280525E2,1.1274402E1,2.2869053E0,7.4092555E0,2.113454E1,1.044459E2,1.6953125E2,5.1531918E1,5.174861E1,9.247836E0,2.0265656E0,3.5978734E0,3.811382E0,4.374315E0,1.6760227E1,5.3836026E0,9.90623E1,8.936021E1,8.017105E1,2.6644684E1,2.4887234E1,1.2427217E1,3.9321396E1],"tree_param":{"num_deleted":"0","num_feature":"36","num_nodes":"29","size_leaf_vector":"1"}},{"base_weights":[8.331536E-4,4.4217673E-1,-8.1467055E-2,6.067509E-1,-6.0079634E-2,8.861824E-2,-1.0176661E-1,7.635539E-1,-5.8409017E-2,-2.4579452E-2,-3.8259372E-1,-8.781861E-4,8.7819725E-2,-9.734232E-3,2.582695E-2,-4.4402074E-2,2.8569745E-2],"categories":[],"categories_nodes":[],"categories_segments":[],"categories_sizes":[],"default_left":[0,0,0,0,0,0,0,0,0,0,0,0,0,0,0,0,0],"id":2,"left_children":[1,3,5,7,-1,-1,9,11,-1,13,15,-1,-1,-1,-1,-1,-1],"loss_changes":[2.0184172E1,1.7605564E1,1.141906E1,1.6762192E1,0E0,0E0,9.992395E0,1.8047482E1,0E0,1.2284759E1,1.2878291E1,0E0,0E0,0E0,0E0,0E0,0E0],"parents":[2147483647,0,0,1,1,2,2,3,3,6,6,7,7,9,9,10,10],"right_children":[2,4,6,8,-1,-1,10,12,-1,14,16,-1,-1,-1,-1,-1,-1],"split_conditions":[4.6021506E-2,4.3734484E-3,-4.1811876E-3,1.0696989E0,-6.0079634E-2,8.861824E-2,1.1819936E0,1.0596275E-3,-5.8409017E-2,1.6587303E-3,4.3849884E1,-8.781861E-4,8.7819725E-2,-9.734232E-3,2.582695E-2,-4.4402074E-2,2.8569745E-2],"split_indices":[18,9,16,22,0,0,22,9,0,9,26,0,0,0,0,0,0],"split_type":[0,0,0,0,0,0,0,0,0,0,0,0,0,0,0,0,0],"sum_hessian":[5.5369904E2,8.6336685E1,4.6736237E2,7.630361E1,1.0033072E1,6.9449015E0,4.6041745E2,6.867719E1,7.626417E0,3.6200543E2,9.841202E1,2.0992271E1,4.7684925E1,2.834379E2,7.856753E1,8.001071E1,1.8401304E1],"tree_param":{"num_deleted":"0","num_feature":"36","num_nodes":"17","size_leaf_vector":"1"}},{"base_weights":[-1.47998445E-2,8.222829E-2,-2.3947874E-1,-5.9907522E-2,3.9788362E-1,-5.3080964E-1,8.49651E-2,-3.433763E-1,4.676406E-2,4.9997294E-1,-6.056211E-1,-5.9889364E-1,3.9384973E-1,-3.9261732E-1,4.5649722E-1,-3.450223E-2,1.2118308E-2,-9.041109E-3,3.3471666E-2,-8.092409E-3,5.0583854E-2,-5.667757E-2,-8.549794E-3,1.9346057E-2,-5.2416045E-2,-4.4127304E-2,8.5799724E-2,-5.0129794E-2,6.736156E-2,-2.9397713E-2,7.275651E-2],"categories":[],"categories_nodes":[],"categories_segments":[],"categories_sizes":[],"default_left":[0,0,0,0,0,0,0,0,0,0,0,0,0,0,0,0,0,0,0,0,0,0,0,0,0,0,0,0,0,0,0],"id":3,"left_children":[1,3,5,7,9,11,13,15,17,19,21,23,25,27,29,-1,-1,-1,-1,-1,-1,-1,-1,-1,-1,-1,-1,-1,-1,-1,-1],"loss_changes":[1.246765E1,1.7949137E1,1.6347273E1,8.372425E0,1.3024443E1,5.965452E0,1.4810854E1,3.3572903E0,1.2022327E1,9.07309E0,5.3565836E-1,4.1900826E0,4.9834623E0,1.1107149E1,1.7816874E1,0E0,0E0,0E0,0E0,0E0,0E0,0E0,0E0,0E0,0E0,0E0,0E0,0E0,0E0,0E0,0E0],"parents":[2147483647,0,0,1,1,2,2,3,3,4,4,5,5,6,6,7,7,8,8,9,9,10,10,11,11,12,12,13,13,14,14],"right_children":[2,4,6,8,10,12,14,16,18,20,22,24,26,28,30,-1,-1,-1,-1,-1,-1,-1,-1,-1,-1,-1,-1,-1,-1,-1,-1],"split_conditions":[1.0899861E-3,8.3164463E-4,-1.4518002E-4,-3.7044242E-1,6.095865E1,1E0,2.8846154E-1,1.0869565E-3,5.9224514E-4,6.140351E-2,1.4917151E-3,1.6539367E-3,8.247571E-4,1.3460393E-1,-4.8932096E-1,-3.450223E-2,1.2118308E-2,-9.041109E-3,3.3471666E-2,-8.092409E-3,5.0583854E-2,-5.667757E-2,-8.549794E-3,1.9346057E-2,-5.2416045E-2,-4.4127304E-2,8.5799724E-2,-5.0129794E-2,6.736156E-2,-2.9397713E-2,7.275651E-2],"split_indices":[10,10,1,21,26,31,17,1,6,18,8,8,6,18,23,0,0,0,0,0,0,0,0,0,0,0,0,0,0,0,0],"split_type":[0,0,0,0,0,0,0,0,0,0,0,0,0,0,0,0,0,0,0,0,0,0,0,0,0,0,0,0,0,0,0],"sum_hessian":[5.700027E2,3.9853036E2,1.714723E2,2.753526E2,1.2317776E2,9.001143E1,8.146087E1,7.467977E1,2.0067284E2,1.1225911E2,1.0918654E1,8.416644E1,5.844983E0,3.561857E1,4.58423E1,6.3524357E1,1.11554165E1,1.408236E2,5.984925E1,2.0295612E1,9.196349E1,8.703403E0,2.2152505E0,5.076372E0,7.909007E1,2.520636E0,3.3243468E0,3.0357306E1,5.261264E0,1.632839E1,2.9513912E1],"tree_param":{"num_deleted":"0","num_feature":"36","num_nodes":"31","size_leaf_vector":"1"}},{"base_weights":[-1.9068756E-3,5.5950445E-1,-1.0650257E-1,6.9724244E-1,-4.5435566E-2,-1.4003867E-1,1.3438709E-1,2.2149424E-1,1.1416703E0,-2.656701E-1,3.1216174E-1,5.6955468E-2,-2.8200567E-2,1.0658284E-1,-3.9334502E-2,5.117973E-3,-3.9669245E-2,-1.751408E-2,1.0684759E-1],"categories":[],"categories_nodes":[],"categories_segments":[],"categories_sizes":[],"default_left":[0,0,0,0,0,0,0,0,0,0,0,0,0,0,0,0,0,0,0],"id":4,"left_children":[1,3,5,7,-1,9,-1,11,13,15,17,-1,-1,-1,-1,-1,-1,-1,-1],"loss_changes":[2.4924822E1,1.0748049E1,2.1668982E1,1.2402229E1,0E0,2.0086725E1,0E0,8.738375E0,1.0214657E1,2.0982794E1,4.2153057E1,0E0,0E0,0E0,0E0,0E0,0E0,0E0,0E0],"parents":[2147483647,0,0,1,1,2,2,3,3,5,5,7,7,8,8,9,9,10,10],"right_children":[2,4,6,8,-1,10,-1,12,14,16,18,-1,-1,-1,-1,-1,-1,-1,-1],"split_conditions":[6.8209856E-4,2.4110672E-1,4.900564E-3,1.3828425E-1,-4.5435566E-2,1.178177E0,1.3438709E-1,7.1736216E-4,2.0242819E-4,1.2223225E-3,1.1313462E-3,5.6955468E-2,-2.8200567E-2,1.0658284E-1,-3.9334502E-2,5.117973E-3,-3.9669245E-2,-1.751408E-2,1.0684759E-1],"split_indices":[11,18,7,18,0,22,0,8,34,8,10,0,0,0,0,0,0,0,0],"split_type":[0,0,0,0,0,0,0,0,0,0,0,0,0,0,0,0,0,0,0],"sum_hessian":[4.2244556E2,6.566159E1,3.5678397E2,5.8853195E1,6.8083935E0,3.511139E2,5.6700754E0,2.9148682E1,2.9704512E1,2.75098E2,7.601589E1,1.5588739E1,1.3559943E1,2.6765278E1,2.939234E0,1.1341189E2,1.6168611E2,5.056329E1,2.5452604E1],"tree_param":{"num_deleted":"0","num_feature":"36","num_nodes":"19","size_leaf_vector":"1"}},{"base_weights":[2.6351318E-3,4.6985492E-1,-7.341045E-2,6.580056E-1,-4.9090913E-1,8.399542E-2,-9.179639E-2,8.9561236E-1,-4.812554E-1,2.5539633E-2,-5.8745913E-2,-1.3176282E-1,4.3908808E-1,1.4154116E-2,8.962571E-2,-5.696703E-2,1.4644663E-2,1.0284355E-2,-1.650636E-2,-2.8865194E-2,9.3018256E-2],"categories":[],"categories_nodes":[],"categories_segments":[],"categories_sizes":[],"default_left":[0,0,0,0,0,0,0,0,0,0,0,0,0,0,0,0,0,0,0,0,0],"id":5,"left_children":[1,3,5,7,9,-1,11,13,15,-1,-1,17,19,-1,-1,-1,-1,-1,-1,-1,-1],"loss_changes":[2.0490473E1,1.4915775E1,1.0340969E1,1.8820341E1,2.954411E0,0E0,1.0432054E1,8.935905E0,2.0278144E0,0E0,0E0,8.86787E0,2.0368034E1,0E0,0E0,0E0,0E0,0E0,0E0,0E0,0E0],"parents":[2147483647,0,0,1,1,2,2,3,3,4,4,6,6,7,7,8,8,11,11,12,12],"right_children":[2,4,6,8,10,-1,12,14,16,-1,-1,18,20,-1,-1,-1,-1,-1,-1,-1,-1],"split_conditions":[3.9167687E-2,3.3635143E-3,-4.1811876E-3,1.039005E0,4.3734484E-3,8.399542E-2,2.0285682E-3,6.54308E-4,7.2491996E-4,2.5539633E-2,-5.8745913E-2,7.1428575E-2,6.765165E-1,1.4154116E-2,8.962571E-2,-5.696703E-2,1.4644663E-2,1.0284355E-2,-1.650636E-2,-2.8865194E-2,9.3018256E-2],"split_indices":[18,16,16,22,9,0,9,10,6,0,0,14,22,0,0,0,0,0,0,0,0],"split_type":[0,0,0,0,0,0,0,0,0,0,0,0,0,0,0,0,0,0,0,0,0],"sum_hessian":[5.747383E2,7.972623E1,4.9501202E2,6.6933464E1,1.2792756E1,7.0679073E0,4.8794412E2,5.5559685E1,1.1373783E1,2.883641E0,9.909115E0,4.5448132E2,3.3462784E1,1.3659603E1,4.190008E1,8.38744E0,2.9863427E0,1.01035545E2,3.534458E2,1.6132027E1,1.7330757E1],"tree_param":{"num_deleted":"0","num_feature":"36","num_nodes":"21","size_leaf_vector":"1"}},{"base_weights":[1.0447371E-2,1.048625E-1,-2.2673334E-1,-2.9124273E-2,4.402352E-1,-3.375376E-1,4.9935874E-1,-4.9269132E-2,8.56279E-2,-1.5959755E-1,5.7419497E-1,8.364071E-2,-4.0036774E-1,-3.5407248E-1,1.0263005E0,-1.0527123E-2,1.5438263E-2,-4.2438053E-2,8.174852E-2,7.133089E-2,9.954478E-3,-5.5587336E-2,-2.07381E-2,2.3639122E-2,-5.123646E-2,2.7540645E-2,9.041174E-2],"categories":[],"categories_nodes":[],"categories_segments":[],"categories_sizes":[],"default_left":[0,0,0,0,0,0,0,0,0,0,0,0,0,0,0,0,0,0,0,0,0,0,0,0,0,0,0],"id":6,"left_children":[1,3,5,7,9,11,13,15,-1,17,19,-1,21,23,25,-1,-1,-1,-1,-1,-1,-1,-1,-1,-1,-1,-1],"loss_changes":[1.249701E1,1.7946224E1,1.2953643E1,6.3895364E0,9.251112E0,1.2451096E1,1.00065155E1,5.6471934E0,0E0,1.0003268E1,1.3223755E1,0E0,5.354944E0,1.8502789E0,5.6809425E-1,0E0,0E0,0E0,0E0,0E0,0E0,0E0,0E0,0E0,0E0,0E0,0E0],"parents":[2147483647,0,0,1,1,2,2,3,3,4,4,5,5,6,6,7,7,9,9,10,10,12,12,13,13,14,14],"right_children":[2,4,6,8,10,12,14,16,-1,18,20,-1,22,24,26,-1,-1,-1,-1,-1,-1,-1,-1,-1,-1,-1,-1],"split_conditions":[1.6587303E-3,8.437241E-4,1.7306249E-3,1.0646287E-3,6.140351E-2,6.6544977E-4,1.8109977E-2,1E0,8.56279E-2,1.0696989E0,3.2454813E-1,8.364071E-2,6.160645E-2,9.5E-1,3.773585E-2,-1.0527123E-2,1.5438263E-2,-4.2438053E-2,8.174852E-2,7.133089E-2,9.954478E-3,-5.5587336E-2,-2.07381E-2,2.3639122E-2,-5.123646E-2,2.7540645E-2,9.041174E-2],"split_indices":[9,10,15,7,18,7,18,32,0,22,21,0,18,24,13,0,0,0,0,0,0,0,0,0,0,0,0],"split_type":[0,0,0,0,0,0,0,0,0,0,0,0,0,0,0,0,0,0,0,0,0,0,0,0,0,0,0],"sum_hessian":[5.560037E2,3.9809204E2,1.5791164E2,2.8510226E2,1.12989784E2,1.3746858E2,2.0443066E1,2.8091052E2,4.1917353E0,2.0592262E1,9.239752E1,5.2940154E0,1.3217456E2,7.9291434E0,1.2513923E1,2.1000423E2,7.09063E1,1.6091782E1,4.500481E0,5.359089E1,3.8806633E1,4.1554115E1,9.0620445E1,2.4164553E0,5.512688E0,2.2237587E0,1.0290164E1],"tree_param":{"num_deleted":"0","num_feature":"36","num_nodes":"27","size_leaf_vector":"1"}},{"base_weights":[-1.4206039E-2,3.6015967E-1,-1.8550588E-1,1.4211993E-1,2.7901465E-1,4.6150577E-1,-2.715548E-1,5.553293E-1,-9.577765E-2,1.23114E0,-4.8187308E-2,-5.370625E-1,-2.4673622E-2,-4.6395987E-2,5.5473633E-2,5.7366736E-2,-3.2700706E-2,-4.1489266E-2,1.3481127E-1,5.6377452E-2,-5.1174037E-2,2.8780198E-2,-3.6649648E-2],"categories":[],"categories_nodes":[],"categories_segments":[],"categories_sizes":[],"default_left":[0,0,0,0,0,0,0,0,0,0,0,0,0,0,0,0,0,0,0,0,0,0,0],"id":7,"left_children":[1,3,5,-1,7,9,11,13,15,17,-1,19,21,-1,-1,-1,-1,-1,-1,-1,-1,-1,-1],"loss_changes":[2.7618423E1,1.5044189E1,1.6572542E1,0E0,1.34199915E1,2.9437403E1,1.711921E1,1.2072889E1,1.4445504E1,1.7289366E1,0E0,1.6491512E1,2.2906824E1,0E0,0E0,0E0,0E0,0E0,0E0,0E0,0E0,0E0,0E0],"parents":[2147483647,0,0,1,1,2,2,4,4,5,5,6,6,7,7,8,8,9,9,11,11,12,12],"right_children":[2,4,6,-1,8,10,12,14,16,18,-1,20,22,-1,-1,-1,-1,-1,-1,-1,-1,-1,-1],"split_conditions":[8.8115747E-4,-2.104036E-3,4.1666668E-2,1.4211993E-1,6.2854745E-4,-2.5509682E-1,3.307393E-1,-3.7078763E-4,1.0780669E-1,9.02439E-1,-4.8187308E-2,5.009796E-4,-1.6385211E-1,-4.6395987E-2,5.5473633E-2,5.7366736E-2,-3.2700706E-2,-4.1489266E-2,1.3481127E-1,5.6377452E-2,-5.1174037E-2,2.8780198E-2,-3.6649648E-2],"split_indices":[11,1,17,0,10,20,17,0,17,25,0,10,19,0,0,0,0,0,0,0,0,0,0],"split_type":[0,0,0,0,0,0,0,0,0,0,0,0,0,0,0,0,0,0,0,0,0,0,0],"sum_hessian":[4.286294E2,1.3421278E2,2.9441663E2,6.1405287E0,1.2807225E2,3.4047356E1,2.6036926E2,7.3444084E1,5.462817E1,1.966417E1,1.4383187E1,1.2488578E2,1.3548347E2,7.617667E0,6.5826416E1,1.4827542E1,3.9800625E1,4.021739E0,1.5642431E1,9.084243E0,1.1580154E2,7.189208E1,6.3591396E1],"tree_param":{"num_deleted":"0","num_feature":"36","num_nodes":"23","size_leaf_vector":"1"}},{"base_weights":[2.4272954E-2,-5.7654258E-2,7.699174E-1,-3.341081E-1,2.4824902E-2,9.023031E-1,-3.953063E-1,5.253665E-1,-4.0764177E-1,3.1365672E-1,-8.5693784E-2,1.053094E0,-1.7010327E-1,5.6559322E-3,-5.0341886E-2,7.876427E-2,-2.611204E-2,-3.6993477E-2,4.3207943E-2,4.491834E-2,-1.5137745E-2,-5.4866392E-2,-2.8516531E-3,8.8572405E-2,8.915337E-3,1.9167079E-2,-4.6509095E-2],"categories":[],"categories_nodes":[],"categories_segments":[],"categories_sizes":[],"default_left":[0,0,0,0,0,0,0,0,0,0,0,0,0,0,0,0,0,0,0,0,0,0,0,0,0,0,0],"id":8,"left_children":[1,3,5,7,9,11,13,15,17,19,21,23,25,-1,-1,-1,-1,-1,-1,-1,-1,-1,-1,-1,-1,-1,-1],"loss_changes":[3.4007423E1,1.1451438E1,8.857662E0,7.506874E0,1.23952675E1,8.230759E0,7.3330545E-1,4.049218E0,5.7972546E0,1.349641E1,8.416209E0,2.105915E0,1.3185414E0,0E0,0E0,0E0,0E0,0E0,0E0,0E0,0E0,0E0,0E0,0E0,0E0,0E0,0E0],"parents":[2147483647,0,0,1,1,2,2,3,3,4,4,5,5,6,6,7,7,8,8,9,9,10,10,11,11,12,12],"right_children":[2,4,6,8,10,12,14,16,18,20,22,24,26,-1,-1,-1,-1,-1,-1,-1,-1,-1,-1,-1,-1,-1,-1],"split_conditions":[2.0285682E-3,3.9219047E-4,1.2631579E-1,2.9670165E-4,-7.968814E-4,3.8528766E-3,1.6965851E-3,1.7271589E-1,5.417646E-1,1.1040895E0,-1.4433077E-3,8.333333E-1,1.278936E-4,5.6559322E-3,-5.0341886E-2,7.876427E-2,-2.611204E-2,-3.6993477E-2,4.3207943E-2,4.491834E-2,-1.5137745E-2,-5.4866392E-2,-2.8516531E-3,8.8572405E-2,8.915337E-3,1.9167079E-2,-4.6509095E-2],"split_indices":[9,6,18,7,16,16,6,18,20,22,1,12,0,0,0,0,0,0,0,0,0,0,0,0,0,0,0],"split_type":[0,0,0,0,0,0,0,0,0,0,0,0,0,0,0,0,0,0,0,0,0,0,0,0,0,0,0],"sum_hessian":[5.549638E2,5.0085532E2,5.410848E1,1.1439041E2,3.864649E2,4.8790802E1,5.3176746E0,8.531236E0,1.0585918E2,1.0644397E2,2.800209E2,4.279185E1,5.9989505E0,2.0106926E0,3.306982E0,5.4417157E0,3.0895197E0,1.0055923E2,5.2999516E0,7.122647E1,3.52175E1,2.0576843E1,2.594441E2,4.0302307E1,2.4895468E0,3.2143197E0,2.7846308E0],"tree_param":{"num_deleted":"0","num_feature":"36","num_nodes":"27","size_leaf_vector":"1"}},{"base_weights":[-4.0173027E-4,1.041518E-1,-2.2681218E-1,-4.002226E-2,5.376632E-1,-3.4632397E-1,2.261697E-1,2.2674E-1,-1.3104458E-1,6.2199277E-1,-3.4026104E-1,6.659429E-2,-3.9936346E-1,-4.1844708E-1,7.9070437E-1,-3.206137E-2,3.658675E-2,-3.183641E-2,-1.3719272E-3,-3.7926126E-2,5.650325E-2,-5.2873712E-2,3.0581951E-2,5.267549E-2,-3.5887666E-2,-5.5036545E-2,7.592217E-2,-2.1277176E-2,8.132447E-2],"categories":[],"categories_nodes":[],"categories_segments":[],"categories_sizes":[],"default_left":[0,0,0,0,0,0,0,0,0,0,0,0,0,0,0,0,0,0,0,0,0,0,0,0,0,0,0,0,0],"id":9,"left_children":[1,3,5,7,9,11,13,15,17,19,21,-1,23,25,27,-1,-1,-1,-1,-1,-1,-1,-1,-1,-1,-1,-1,-1,-1],"loss_changes":[1.2965619E1,2.3440313E1,9.44545E0,6.879757E0,7.140003E0,8.916609E0,1.3695595E1,1.0621479E1,6.406787E0,8.2564125E0,2.3025675E0,0E0,7.173128E0,7.213229E0,5.0254736E0,0E0,0E0,0E0,0E0,0E0,0E0,0E0,0E0,0E0,0E0,0E0,0E0,0E0,0E0],"parents":[2147483647,0,0,1,1,2,2,3,3,4,4,5,5,6,6,7,7,8,8,9,9,10,10,12,12,13,13,14,14],"right_children":[2,4,6,8,10,12,14,16,18,20,22,-1,24,26,28,-1,-1,-1,-1,-1,-1,-1,-1,-1,-1,-1,-1,-1,-1],"split_conditions":[1.5931848E-3,8.437241E-4,1.542642E-3,-3.3489978E-1,6.095865E1,6.6544977E-4,2.51634E-1,-4.160339E-1,8.436661E-4,5.258381E-1,-3.4472853E-4,6.659429E-2,1.395429E-3,8.146965E-2,5.609756E-1,-3.206137E-2,3.658675E-2,-3.183641E-2,-1.3719272E-3,-3.7926126E-2,5.650325E-2,-5.2873712E-2,3.0581951E-2,5.267549E-2,-3.5887666E-2,-5.5036545E-2,7.592217E-2,-2.1277176E-2,8.132447E-2],"split_indices":[9,10,1,19,26,7,17,20,9,22,0,0,8,18,25,0,0,0,0,0,0,0,0,0,0,0,0,0,0],"split_type":[0,0,0,0,0,0,0,0,0,0,0,0,0,0,0,0,0,0,0,0,0,0,0,0,0,0,0,0,0],"sum_hessian":[5.457214E2,3.736941E2,1.720273E2,2.811117E2,9.25824E1,1.3630179E2,3.5725513E1,7.113699E1,2.099747E2,8.473468E1,7.8477187E0,5.236265E0,1.3106552E2,1.6800524E1,1.892499E1,1.891806E1,5.2218933E1,6.2055508E1,1.4791919E2,5.7212515E0,7.901343E1,5.4945283E0,2.3531902E0,5.2784486E0,1.2578707E2,1.4449623E1,2.3509011E0,3.301408E0,1.5623581E1],"tree_param":{"num_deleted":"0","num_feature":"36","num_nodes":"29","size_leaf_vector":"1"}},{"base_weights":[2.1802979E-2,4.960964E-1,-7.239309E-2,-3.120768E-1,6.8443197E-1,-1.0362667E-1,1.1850911E-1,5.4109883E-2,-4.808745E-2,1.6254944E-1,9.4846624E-1,-3.63793E-1,8.1036925E-2,9.829305E-2,-3.336225E-2,-4.230683E-2,8.972951E-2,-4.3533426E-2,1.04655195E-2,-1.2093422E-2,3.491897E-2],"categories":[],"categories_nodes":[],"categories_segments":[],"categories_sizes":[],"default_left":[0,0,0,0,0,0,0,0,0,0,0,0,0,0,0,0,0,0,0,0,0],"id":10,"left_children":[1,3,5,7,9,11,-1,-1,-1,13,15,17,19,-1,-1,-1,-1,-1,-1,-1,-1],"loss_changes":[1.9333147E1,1.112635E1,1.7684038E1,4.4738016E0,7.9012165E0,1.7087307E1,0E0,0E0,0E0,1.3393435E1,1.0470222E1,1.3237246E1,1.7272987E1,0E0,0E0,0E0,0E0,0E0,0E0,0E0,0E0],"parents":[2147483647,0,0,1,1,2,2,3,3,4,4,5,5,9,9,10,10,11,11,12,12],"right_children":[2,4,6,8,10,12,-1,-1,-1,14,16,18,20,-1,-1,-1,-1,-1,-1,-1,-1],"split_conditions":[6.8209856E-4,1E-1,4.900564E-3,-1.3425783E-3,1.1515152E-1,-2.7779044E-5,1.1850911E-1,5.4109883E-2,-4.808745E-2,2.0535277E-4,-4.1482973E-1,1.945251E-1,-2.964385E-4,9.829305E-2,-3.336225E-2,-4.230683E-2,8.972951E-2,-4.3533426E-2,1.04655195E-2,-1.2093422E-2,3.491897E-2],"split_indices":[11,24,7,16,18,34,0,0,0,6,19,18,0,0,0,0,0,0,0,0,0],"split_type":[0,0,0,0,0,0,0,0,0,0,0,0,0,0,0,0,0,0,0,0,0],"sum_hessian":[4.3093176E2,7.0696434E1,3.6023535E2,1.3237126E1,5.7459305E1,3.540515E2,6.183827E0,2.6915684E0,1.0545558E1,1.984664E1,3.7612667E1,1.4657579E2,2.0747572E2,6.5951505E0,1.325149E1,3.7305179E0,3.388215E1,1.07333336E2,3.9242462E1,1.25841835E2,8.163389E1],"tree_param":{"num_deleted":"0","num_feature":"36","num_nodes":"21","size_leaf_vector":"1"}},{"base_weights":[1.4720202E-2,8.5886255E-2,-3.0159763E-1,-2.3399839E-1,1.7606214E-1,-4.2789266E-1,7.8991425E-1,7.16596E-1,-3.1889838E-1,5.4532224E-1,4.8623797E-2,-5.889127E-1,7.861236E-2,8.689039E-2,-1.0581886E-2,7.483835E-2,7.751814E-3,-3.055048E-2,7.336832E-2,2.9078495E-2,6.5788016E-2,2.657695E-2,-1.0549153E-2,6.615824E-2,-5.238078E-2,-3.9641645E-2,7.2104245E-2],"categories":[],"categories_nodes":[],"categories_segments":[],"categories_sizes":[],"default_left":[0,0,0,0,0,0,0,0,0,0,0,0,0,0,0,0,0,0,0,0,0,0,0,0,0,0,0],"id":11,"left_children":[1,3,5,7,9,11,13,15,17,19,21,23,25,-1,-1,-1,-1,-1,-1,-1,-1,-1,-1,-1,-1,-1,-1],"loss_changes":[1.2672706E1,1.3292987E1,1.4592437E1,8.416521E0,1.686465E1,7.657934E0,3.1689935E0,1.0794358E0,7.6545086E0,4.335436E0,1.3758517E1,7.15477E0,1.149681E1,0E0,0E0,0E0,0E0,0E0,0E0,0E0,0E0,0E0,0E0,0E0,0E0,0E0,0E0],"parents":[2147483647,0,0,1,1,2,2,3,3,4,4,5,5,6,6,7,7,8,8,9,9,10,10,11,11,12,12],"right_children":[2,4,6,8,10,12,14,16,18,20,22,24,26,-1,-1,-1,-1,-1,-1,-1,-1,-1,-1,-1,-1,-1,-1],"split_conditions":[1.1819936E0,3.9219047E-4,5.4365704E1,2.9670165E-4,-7.968814E-4,1.4413817E0,1.6048857E-3,1.2743153E-1,1.742907E-3,1.0503426E-3,2.6249035E1,1.8412325E1,1.9048673E-1,8.689039E-2,-1.0581886E-2,7.483835E-2,7.751814E-3,-3.055048E-2,7.336832E-2,2.9078495E-2,6.5788016E-2,2.657695E-2,-1.0549153E-2,6.615824E-2,-5.238078E-2,-3.9641645E-2,7.2104245E-2],"split_indices":[22,6,26,7,16,22,2,18,9,10,26,26,23,0,0,0,0,0,0,0,0,0,0,0,0,0,0],"split_type":[0,0,0,0,0,0,0,0,0,0,0,0,0,0,0,0,0,0,0,0,0,0,0,0,0,0,0],"sum_hessian":[5.608032E2,4.583997E2,1.02403534E2,1.0045535E2,3.5794434E2,9.232851E1,1.0075028E1,7.6262717E0,9.282908E1,9.099675E1,2.6694757E2,6.993362E1,2.2394886E1,7.4910536E0,2.5839744E0,5.259126E0,2.3671455E0,8.8985695E1,3.843385E0,5.6332314E1,3.4664436E1,1.0349412E2,1.6345346E2,2.59411E0,6.733951E1,1.3424196E1,8.97069E0],"tree_param":{"num_deleted":"0","num_feature":"36","num_nodes":"27","size_leaf_vector":"1"}},{"base_weights":[-3.4262897E-3,1.0981499E-1,-2.726979E-1,-1.3736346E-1,2.327679E-1,-4.1518E-1,1.962794E-1,-2.1981385E-1,3.7872428E-1,5.575333E-1,1.3149635E-1,6.634515E-2,-4.828576E-1,-4.293231E-1,7.2389376E-1,-2.0936698E-2,4.827493E-2,6.1050866E-2,-3.6994096E-2,6.1616812E-2,-3.2312449E-3,7.420713E-3,7.752598E-2,-4.2517852E-2,2.3791961E-2,4.9247388E-2,-5.471007E-2,-2.5721366E-2,7.671407E-2],"categories":[],"categories_nodes":[],"categories_segments":[],"categories_sizes":[],"default_left":[0,0,0,0,0,0,0,0,0,0,0,0,0,0,0,0,0,0,0,0,0,0,0,0,0,0,0,0,0],"id":12,"left_children":[1,3,5,7,9,11,13,15,17,19,21,-1,23,25,27,-1,-1,-1,-1,-1,-1,-1,-1,-1,-1,-1,-1,-1,-1],"loss_changes":[1.6945383E1,1.1921756E1,1.1074517E1,5.639991E0,8.531725E0,1.1054882E1,1.3188469E1,4.063296E0,6.2883215E0,7.9005013E0,6.4236197E0,0E0,4.7330456E0,5.3356986E0,5.600033E0,0E0,0E0,0E0,0E0,0E0,0E0,0E0,0E0,0E0,0E0,0E0,0E0,0E0,0E0],"parents":[2147483647,0,0,1,1,2,2,3,3,4,4,5,5,6,6,7,7,8,8,9,9,10,10,12,12,13,13,14,14],"right_children":[2,4,6,8,10,12,14,16,18,20,22,-1,24,26,28,-1,-1,-1,-1,-1,-1,-1,-1,-1,-1,-1,-1,-1,-1],"split_conditions":[1.6587303E-3,5.464055E-4,1.5542211E-3,1E0,2.857143E-1,6.6544977E-4,2.51634E-1,2.8832382E-1,2.3853683E-1,5.251137E-4,2.2552551E-3,6.634515E-2,1E0,1.6717765E-3,-5.133575E-1,-2.0936698E-2,4.827493E-2,6.1050866E-2,-3.6994096E-2,6.1616812E-2,-3.2312449E-3,7.420713E-3,7.752598E-2,-4.2517852E-2,2.3791961E-2,4.9247388E-2,-5.471007E-2,-2.5721366E-2,7.671407E-2],"split_indices":[9,7,1,32,12,7,17,19,18,15,1,0,31,8,23,0,0,0,0,0,0,0,0,0,0,0,0,0,0],"split_type":[0,0,0,0,0,0,0,0,0,0,0,0,0,0,0,0,0,0,0,0,0,0,0,0,0,0,0,0,0],"sum_hessian":[5.537379E2,3.9022308E2,1.6351485E2,1.2958818E2,2.6063492E2,1.2550064E2,3.80142E1,1.12232025E2,1.735616E1,6.0883526E1,1.9975137E2,5.8924804E0,1.1960816E2,1.747731E1,2.0536888E1,1.07446236E2,4.7857933E0,1.1975858E1,5.380302E0,4.469701E1,1.6186518E1,1.9198303E2,7.7683425E0,1.12892975E2,6.7151847E0,3.1457937E0,1.4331516E1,3.7021117E0,1.6834778E1],"tree_param":{"num_deleted":"0","num_feature":"36","num_nodes":"29","size_leaf_vector":"1"}},{"base_weights":[1.438066E-2,2.8952304E-1,-1.1945227E-1,4.3816784E-1,-4.944483E-2,-2.4499044E-1,4.0683916E-1,-4.2640364E-1,5.574709E-1,-1.09344184E-1,-4.9730718E-2,-4.657613E-2,6.516477E-1,3.8512442E-2,-4.8176188E-2,1.27391275E-2,6.4000525E-2,-2.4173724E-2,5.5388145E-2,3.322281E-2,1.2053042E-1],"categories":[],"categories_nodes":[],"categories_segments":[],"categories_sizes":[],"default_left":[0,0,0,0,0,0,0,0,0,0,0,0,0,0,0,0,0,0,0,0,0],"id":13,"left_children":[1,3,5,7,-1,9,11,13,15,17,-1,-1,19,-1,-1,-1,-1,-1,-1,-1,-1],"loss_changes":[1.5900197E1,1.9331448E1,1.9297771E1,1.28203125E1,0E0,1.1950261E1,1.4020373E1,2.7410264E0,1.0268051E1,2.7132736E1,0E0,0E0,8.59594E0,0E0,0E0,0E0,0E0,0E0,0E0,0E0,0E0],"parents":[2147483647,0,0,1,1,2,2,3,3,5,5,6,6,7,7,8,8,9,9,12,12],"right_children":[2,4,6,8,-1,10,12,14,16,18,-1,-1,20,-1,-1,-1,-1,-1,-1,-1,-1],"split_conditions":[8.908814E-4,2.4110672E-1,8.1666666E-1,-4.902835E-1,-4.944483E-2,1.0592974E-3,-6.0888153E-1,1.0564523E1,1.1515152E-1,1.1748535E-3,-4.9730718E-2,-4.657613E-2,2.6844798E-3,3.8512442E-2,-4.8176188E-2,1.27391275E-2,6.4000525E-2,-2.4173724E-2,5.5388145E-2,3.322281E-2,1.2053042E-1],"split_indices":[11,18,12,19,0,6,23,26,18,10,0,0,16,0,0,0,0,0,0,0,0],"split_type":[0,0,0,0,0,0,0,0,0,0,0,0,0,0,0,0,0,0,0,0,0],"sum_hessian":[4.2986023E2,1.4028662E2,2.895736E2,1.20988266E2,1.929835E1,2.3423517E2,5.533845E1,1.4358713E1,1.06629555E2,1.7316205E2,6.107311E1,1.0706277E1,4.4632175E1,2.047453E0,1.231126E1,4.0987164E1,6.5642395E1,1.4009007E2,3.307198E1,3.6129723E1,8.50245E0],"tree_param":{"num_deleted":"0","num_feature":"36","num_nodes":"21","size_leaf_vector":"1"}},{"base_weights":[9.335679E-3,1.8979023E-1,-1.2707673E-1,-5.9030484E-2,5.5808896E-1,-2.0051928E-1,3.4236658E-1,1.8341306E-1,-3.0327037E-1,7.405439E-1,-3.272991E-1,4.4491494E-1,-2.6501873E-1,5.345068E-1,-5.689683E-1,5.6189135E-2,-8.098016E-3,-8.49446E-3,-4.9386058E-2,6.701458E-2,-4.9818806E-2,6.795176E-2,-5.7418134E-2,7.523444E-2,1.715794E-3,7.604986E-2,-2.3662157E-2,7.544771E-2,1.5901906E-2,-1.4842959E-2,-5.3388055E-2],"categories":[],"categories_nodes":[],"categories_segments":[],"categories_sizes":[],"default_left":[0,0,0,0,0,0,0,0,0,0,0,0,0,0,0,0,0,0,0,0,0,0,0,0,0,0,0,0,0,0,0],"id":14,"left_children":[1,3,5,7,9,11,13,15,17,19,21,23,25,27,29,-1,-1,-1,-1,-1,-1,-1,-1,-1,-1,-1,-1,-1,-1,-1,-1],"loss_changes":[1.356949E1,2.1778349E1,1.0893463E1,8.494866E0,1.5713482E1,1.14466E1,7.806258E0,1.0728059E1,4.352286E0,1.1077843E1,8.44594E0,5.246012E0,9.555269E0,4.737111E0,1.7587113E-1,0E0,0E0,0E0,0E0,0E0,0E0,0E0,0E0,0E0,0E0,0E0,0E0,0E0,0E0,0E0,0E0],"parents":[2147483647,0,0,1,1,2,2,3,3,4,4,5,5,6,6,7,7,8,8,9,9,10,10,11,11,12,12,13,13,14,14],"right_children":[2,4,6,8,10,12,14,16,18,20,22,24,26,28,30,-1,-1,-1,-1,-1,-1,-1,-1,-1,-1,-1,-1,-1,-1,-1,-1],"split_conditions":[1.1515152E-1,1.5989554E-3,5.4365704E1,-1.5524882E-4,4.717133E-3,-4.719784E-1,1.679411E0,2.5809666E1,1E0,1.0791937E0,-3.7301306E-3,3.0206514E1,-5.3664455E-3,1.1696473E-1,7.42954E-4,5.6189135E-2,-8.098016E-3,-8.49446E-3,-4.9386058E-2,6.701458E-2,-4.9818806E-2,6.795176E-2,-5.7418134E-2,7.523444E-2,1.715794E-3,7.604986E-2,-2.3662157E-2,7.544771E-2,1.5901906E-2,-1.4842959E-2,-5.3388055E-2],"split_indices":[18,9,26,2,7,19,23,26,28,22,1,26,2,21,6,0,0,0,0,0,0,0,0,0,0,0,0,0,0,0,0],"split_type":[0,0,0,0,0,0,0,0,0,0,0,0,0,0,0,0,0,0,0,0,0,0,0,0,0,0,0,0,0,0,0],"sum_hessian":[5.4926166E2,2.3629073E2,3.1297092E2,1.4152016E2,9.477057E1,2.71127E2,4.18439E1,7.114623E1,7.037392E1,7.8713425E1,1.605715E1,2.4096802E1,2.4703023E2,3.4899414E1,6.944487E0,2.468078E1,4.6465454E1,4.4060966E1,2.6312952E1,7.383776E1,4.8756604E0,3.7075477E0,1.2349603E1,1.0541269E1,1.35555315E1,5.3581076E0,2.4167212E2,1.4925677E1,1.9973734E1,2.0072799E0,4.9372067E0],"tree_param":{"num_deleted":"0","num_feature":"36","num_nodes":"31","size_leaf_vector":"1"}},{"base_weights":[-3.2108873E-3,8.824668E-2,-2.3147874E-1,-3.1864535E-2,3.7566304E-1,-5.0652385E-1,4.5190904E-2,-5.3065315E-2,7.844281E-2,-2.3722653E-1,5.071587E-1,-1.7755033E-1,-6.5081245E-1,-3.9282733E-1,3.3348635E-1,-1.4091318E-2,7.0928573E-3,5.7905547E-2,-4.1512713E-2,6.1343055E-2,7.440994E-3,-3.3955894E-2,6.7786135E-2,-5.6459874E-2,-2.1422768E-4,6.0045786E-2,-4.705459E-2,-1.0534985E-2,6.608975E-2],"categories":[],"categories_nodes":[],"categories_segments":[],"categories_sizes":[],"default_left":[0,0,0,0,0,0,0,0,0,0,0,0,0,0,0,0,0,0,0,0,0,0,0,0,0,0,0,0,0],"id":15,"left_children":[1,3,5,7,9,11,13,15,-1,17,19,21,23,25,27,-1,-1,-1,-1,-1,-1,-1,-1,-1,-1,-1,-1,-1,-1],"loss_changes":[1.175478E1,1.3890396E1,1.2278854E1,6.1574197E0,9.675779E0,3.7220707E0,1.0386085E1,4.892119E0,0E0,6.2299385E0,1.0459589E1,6.944816E0,1.9857693E0,7.744246E0,1.1455963E1,0E0,0E0,0E0,0E0,0E0,0E0,0E0,0E0,0E0,0E0,0E0,0E0,0E0,0E0],"parents":[2147483647,0,0,1,1,2,2,3,3,4,4,5,5,6,6,7,7,9,9,10,10,11,11,12,12,13,13,14,14],"right_children":[2,4,6,8,10,12,14,16,-1,18,20,22,24,26,28,-1,-1,-1,-1,-1,-1,-1,-1,-1,-1,-1,-1,-1,-1],"split_conditions":[1.6587303E-3,8.437241E-4,-9.840859E-5,1.0329406E-3,6.140351E-2,-3.2987657E-1,2.866242E-1,1.4269223E-6,7.844281E-2,1.3991534E-3,3.2454813E-1,1.5261011E-3,1.5816265E0,1.4996395E-3,2.1412477E-3,-1.4091318E-2,7.0928573E-3,5.7905547E-2,-4.1512713E-2,6.1343055E-2,7.440994E-3,-3.3955894E-2,6.7786135E-2,-5.6459874E-2,-2.1422768E-4,6.0045786E-2,-4.705459E-2,-1.0534985E-2,6.608975E-2],"split_indices":[9,10,1,7,18,21,17,16,0,9,21,7,23,8,8,0,0,0,0,0,0,0,0,0,0,0,0,0,0],"split_type":[0,0,0,0,0,0,0,0,0,0,0,0,0,0,0,0,0,0,0,0,0,0,0,0,0,0,0,0,0],"sum_hessian":[5.610756E2,4.010177E2,1.6005794E2,2.834522E2,1.1756547E2,7.9848E1,8.020994E1,2.785663E2,4.8859057E0,2.0625908E1,9.693956E1,2.5024178E1,5.4823822E1,3.169378E1,4.8516155E1,1.4896283E2,1.2960349E2,4.319381E0,1.6306526E1,5.906196E1,3.78776E1,2.0638184E1,4.3859944E0,5.045809E1,4.3657284E0,4.210124E0,2.7483658E1,2.533044E1,2.3185715E1],"tree_param":{"num_deleted":"0","num_feature":"36","num_nodes":"29","size_leaf_vector":"1"}},{"base_weights":[-1.8380253E-2,-2.153177E-1,1.9405726E-1,-2.6835984E-1,9.738134E-2,5.6822574E-1,-1.6879953E-1,-5.2624434E-1,-2.6362024E-2,7.9945344E-1,-7.423252E-2,-3.7624466E-1,8.7892485E-1,-3.4471909E-3,-4.9729757E-2,5.0516956E-2,-1.695351E-2,7.3570654E-2,-4.400569E-2,6.4265825E-2,-4.8246495E-2,-4.6606306E-2,5.6509353E-4,-4.0798347E-2,1.0780403E-1],"categories":[],"categories_nodes":[],"categories_segments":[],"categories_sizes":[],"default_left":[0,0,0,0,0,0,0,0,0,0,0,0,0,0,0,0,0,0,0,0,0,0,0,0,0],"id":16,"left_children":[1,3,5,7,-1,9,11,13,15,17,19,21,23,-1,-1,-1,-1,-1,-1,-1,-1,-1,-1,-1,-1],"loss_changes":[1.7438175E1,1.6759174E1,2.7326038E1,1.3051232E1,0E0,1.4761839E1,2.2628304E1,4.6411705E0,1.3445507E1,1.2323067E1,1.30653E1,6.8323574E0,1.1918209E1,0E0,0E0,0E0,0E0,0E0,0E0,0E0,0E0,0E0,0E0,0E0,0E0],"parents":[2147483647,0,0,1,1,2,2,3,3,5,5,6,6,7,7,8,8,9,9,10,10,11,11,12,12],"right_children":[2,4,6,8,-1,10,12,14,16,18,20,22,24,-1,-1,-1,-1,-1,-1,-1,-1,-1,-1,-1,-1],"split_conditions":[7.3277355E-5,4.900564E-3,4.1095892E-1,1.3118474E-1,9.738134E-2,2.7522288E-4,9.072165E-1,5.2645477E-4,1.4436619E-1,2.7780548E-1,4.1072618E-4,4.3984962E-1,1.5873017E-2,-3.4471909E-3,-4.9729757E-2,5.0516956E-2,-1.695351E-2,7.3570654E-2,-4.400569E-2,6.4265825E-2,-4.8246495E-2,-4.6606306E-2,5.6509353E-4,-4.0798347E-2,1.0780403E-1],"split_indices":[34,7,12,18,0,34,12,10,18,18,6,17,14,0,0,0,0,0,0,0,0,0,0,0,0],"split_type":[0,0,0,0,0,0,0,0,0,0,0,0,0,0,0,0,0,0,0,0,0,0,0,0,0],"sum_hessian":[4.1481454E2,2.1525325E2,1.995613E2,2.0835161E2,6.9016447E0,9.79706E1,1.015907E2,1.0029638E2,1.0805522E2,7.186223E1,2.6108368E1,8.533551E1,1.6255188E1,1.6774351E1,8.3522026E1,2.3245111E1,8.481011E1,6.627846E1,5.583773E0,9.622343E0,1.6486025E1,5.5136024E1,3.0199488E1,4.0786653E0,1.2176523E1],"tree_param":{"num_deleted":"0","num_feature":"36","num_nodes":"25","size_leaf_vector":"1"}},{"base_weights":[1.9448282E-2,-1.0375717E-1,2.1097311E-1,7.9895437E-1,-1.2786953E-1,6.510528E-1,7.959204E-2,-3.7850935E-3,8.451521E-2,1.4677013E-1,-2.1191202E-1,-2.7369314E-1,7.7613205E-1,4.1756198E-1,-8.7007724E-2,3.256012E-2,-1.4922665E-2,1.2956053E-3,-2.7466912E-2,2.7911775E-2,-5.0725717E-2,6.827949E-2,-1.973109E-2,-5.881107E-3,5.621117E-2,1.5794199E-2,-3.7782952E-2],"categories":[],"categories_nodes":[],"categories_segments":[],"categories_sizes":[],"default_left":[0,0,0,0,0,0,0,0,0,0,0,0,0,0,0,0,0,0,0,0,0,0,0,0,0,0,0],"id":17,"left_children":[1,3,5,7,9,11,13,-1,-1,15,17,19,21,23,25,-1,-1,-1,-1,-1,-1,-1,-1,-1,-1,-1,-1],"loss_changes":[1.3006428E1,7.4053955E0,1.2421764E1,1.9821324E0,7.593938E0,5.93326E0,9.455062E0,0E0,0E0,6.7861958E0,7.5390873E0,1.7092526E0,3.6782913E0,7.8080244E0,1.2462727E1,0E0,0E0,0E0,0E0,0E0,0E0,0E0,0E0,0E0,0E0,0E0,0E0],"parents":[2147483647,0,0,1,1,2,2,3,3,4,4,5,5,6,6,9,9,10,10,11,11,12,12,13,13,14,14],"right_children":[2,4,6,8,10,12,14,-1,-1,16,18,20,22,24,26,-1,-1,-1,-1,-1,-1,-1,-1,-1,-1,-1,-1],"split_conditions":[7.370384E-4,-1.9470727E-3,-4.1228706E-1,-1.00715965E-1,-4.160339E-1,6.7769806E-4,-7.614639E-4,-3.7850935E-3,8.451521E-2,7.9027144E-5,5.309759E-4,-4.2715572E-5,2.8223074E-3,-2.724911E-3,1.2372188E-1,3.256012E-2,-1.4922665E-2,1.2956053E-3,-2.7466912E-2,2.7911775E-2,-5.0725717E-2,6.827949E-2,-1.973109E-2,-5.881107E-3,5.621117E-2,1.5794199E-2,-3.7782952E-2],"split_indices":[6,15,23,20,20,11,16,0,0,34,7,0,11,1,18,0,0,0,0,0,0,0,0,0,0,0,0],"split_type":[0,0,0,0,0,0,0,0,0,0,0,0,0,0,0,0,0,0,0,0,0,0,0,0,0,0,0],"sum_hessian":[5.492645E2,3.345263E2,2.147382E2,7.867056E0,3.2665927E2,4.845978E1,1.6627841E2,2.0256572E0,5.8413987E0,7.636436E1,2.502949E2,5.632079E0,4.2827705E1,5.440474E1,1.1187368E2,4.2758747E1,3.360561E1,9.181416E1,1.5848074E2,2.0765262E0,3.5555527E0,3.9969917E1,2.8577852E0,2.0255194E1,3.4149544E1,6.464017E1,4.723351E1],"tree_param":{"num_deleted":"0","num_feature":"36","num_nodes":"27","size_leaf_vector":"1"}},{"base_weights":[-5.6459215E-3,-1.4929447E-1,1.148807E-1,-6.038963E-1,-5.4601043E-2,4.45691E-2,5.634514E-1,-6.6201395E-1,1.160293E-2,2.659163E-2,-4.635116E-1,1.7749037E-1,-5.36037E-1,2.168625E-1,9.307318E-1,-1.4955921E-3,-5.6301814E-2,-1.2997655E-2,3.1607587E-2,-4.6387013E-2,6.003935E-2,2.4963748E-2,-1.2051668E-2,-4.8819732E-2,6.360272E-3,6.106211E-2,-2.8805723E-2,2.7204104E-2,7.945114E-2],"categories":[],"categories_nodes":[],"categories_segments":[],"categories_sizes":[],"default_left":[0,0,0,0,0,0,0,0,0,0,0,0,0,0,0,0,0,0,0,0,0,0,0,0,0,0,0,0,0],"id":18,"left_children":[1,3,5,7,9,11,13,15,-1,17,19,21,23,25,27,-1,-1,-1,-1,-1,-1,-1,-1,-1,-1,-1,-1,-1,-1],"loss_changes":[9.600083E0,1.0856416E1,9.485228E0,1.9897795E0,6.9994383E0,2.0296553E1,4.9884872E0,1.0763226E0,0E0,1.2363267E1,5.366384E0,9.484671E0,2.287321E0,7.299011E0,3.8082314E-1,0E0,0E0,0E0,0E0,0E0,0E0,0E0,0E0,0E0,0E0,0E0,0E0,0E0,0E0],"parents":[2147483647,0,0,1,1,2,2,3,3,4,4,5,5,6,6,7,7,9,9,10,10,11,11,12,12,13,13,14,14],"right_children":[2,4,6,8,10,12,14,16,-1,18,20,22,24,26,28,-1,-1,-1,-1,-1,-1,-1,-1,-1,-1,-1,-1,-1,-1],"split_conditions":[2.7951294E1,-2.0537395E-3,1.5542211E-3,2.4093115E0,1.0329406E-3,1.290576E-3,3.75E-1,-5.9203327E-1,1.160293E-2,1E0,7.1428573E-1,4.956451E1,7.3577027E-4,1E0,4E-1,-1.4955921E-3,-5.6301814E-2,-1.2997655E-2,3.1607587E-2,-4.6387013E-2,6.003935E-2,2.4963748E-2,-1.2051668E-2,-4.8819732E-2,6.360272E-3,6.106211E-2,-2.8805723E-2,2.7204104E-2,7.945114E-2],"split_indices":[26,5,1,23,7,10,17,21,0,32,13,26,34,32,24,0,0,0,0,0,0,0,0,0,0,0,0,0,0],"split_type":[0,0,0,0,0,0,0,0,0,0,0,0,0,0,0,0,0,0,0,0,0,0,0,0,0,0,0,0,0],"sum_hessian":[5.524957E2,2.5196039E2,3.005353E2,4.250862E1,2.0945177E2,2.607614E2,3.977392E1,3.9555176E1,2.9534447E0,1.7553313E2,3.3918633E1,2.1274977E2,4.801164E1,2.128166E1,1.8492256E1,2.4993196E0,3.705586E1,1.16381935E2,5.91512E1,3.1429432E1,2.4892006E0,1.509144E2,6.183537E1,4.2853783E1,5.157856E0,1.0764048E1,1.05176115E1,2.3833132E0,1.6108944E1],"tree_param":{"num_deleted":"0","num_feature":"36","num_nodes":"29","size_leaf_vector":"1"}},{"base_weights":[2.753591E-2,3.09514E-1,-1.12293005E-1,4.4288278E-1,-4.84275E-2,-2.7104986E-1,1.8370138E-1,-3.8878763E-1,5.392128E-1,-3.9061126E-1,3.010833E-1,1.1098132E0,-6.9572575E-2,-4.687981E-2,3.84503E-2,1.33478455E-2,5.993091E-2,-3.3508714E-3,-4.9600415E-2,-4.667792E-2,6.579992E-2,1.08546935E-1,-3.7068486E-2,-4.8827488E-2,3.0664044E-2],"categories":[],"categories_nodes":[],"categories_segments":[],"categories_sizes":[],"default_left":[0,0,0,0,0,0,0,0,0,0,0,0,0,0,0,0,0,0,0,0,0,0,0,0,0],"id":19,"left_children":[1,3,5,7,-1,9,11,13,15,17,19,21,23,-1,-1,-1,-1,-1,-1,-1,-1,-1,-1,-1,-1],"loss_changes":[1.6762411E1,1.7460436E1,1.3411514E1,1.0108225E1,0E0,1.2805548E1,2.3501097E1,2.5802996E0,8.563278E0,1.2281866E1,1.5527699E1,8.985619E0,1.9668873E1,0E0,0E0,0E0,0E0,0E0,0E0,0E0,0E0,0E0,0E0,0E0,0E0],"parents":[2147483647,0,0,1,1,2,2,3,3,5,5,6,6,7,7,8,8,9,9,10,10,11,11,12,12],"right_children":[2,4,6,8,-1,10,12,14,16,18,20,22,24,-1,-1,-1,-1,-1,-1,-1,-1,-1,-1,-1,-1],"split_conditions":[8.908814E-4,2.4110672E-1,9.166667E-1,-4.9500245E-1,-4.84275E-2,1.3015945E0,4.1666668E-2,5.5813956E-1,1.1515152E-1,1.2223225E-3,1.4833232E-3,-2.5525037E-4,1.8183384E-3,-4.687981E-2,3.84503E-2,1.33478455E-2,5.993091E-2,-3.3508714E-3,-4.9600415E-2,-4.667792E-2,6.579992E-2,1.08546935E-1,-3.7068486E-2,-4.8827488E-2,3.0664044E-2],"split_indices":[11,18,25,19,0,22,17,13,18,8,8,1,9,0,0,0,0,0,0,0,0,0,0,0,0],"split_type":[0,0,0,0,0,0,0,0,0,0,0,0,0,0,0,0,0,0,0,0,0,0,0,0,0],"sum_hessian":[4.2325085E2,1.3990527E2,2.8334558E2,1.2255499E2,1.7350275E1,1.844825E2,9.8863075E1,1.2406535E1,1.1014846E2,1.528566E2,3.162591E1,2.050466E1,7.835841E1,1.0378389E1,2.0281456E0,4.035721E1,6.979125E1,6.112173E1,9.173486E1,1.1684569E1,1.9941341E1,1.7840765E1,2.6638937E0,3.555493E1,4.2803482E1],"tree_param":{"num_deleted":"0","num_feature":"36","num_nodes":"25","size_leaf_vector":"1"}},{"base_weights":[6.7798793E-3,-5.1344838E-2,4.37305E-1,4.4178525E-1,-8.553526E-2,7.516241E-1,-3.7186143E-1,7.641974E-1,4.4124804E-2,7.468239E-2,-1.0328161E-1,7.397163E-2,8.498872E-2,-5.5625755E-2,6.4052306E-2,7.054679E-2,3.4849467E-3,-3.9410405E-2,4.749794E-2,-3.2159355E-2,-4.019159E-3,5.9977166E-2,-3.725734E-2],"categories":[],"categories_nodes":[],"categories_segments":[],"categories_sizes":[],"default_left":[0,0,0,0,0,0,0,0,0,0,0,0,0,0,0,0,0,0,0,0,0,0,0],"id":20,"left_children":[1,3,5,7,9,11,13,15,17,-1,19,-1,21,-1,-1,-1,-1,-1,-1,-1,-1,-1,-1],"loss_changes":[1.4332772E1,8.547744E0,1.7606842E1,4.182878E0,8.647664E0,5.619137E0,8.0392475E0,1.4960899E0,4.949624E0,0E0,7.3576946E0,0E0,4.478537E0,0E0,0E0,0E0,0E0,0E0,0E0,0E0,0E0,0E0,0E0],"parents":[2147483647,0,0,1,1,2,2,3,3,4,4,5,5,6,6,7,7,8,8,10,10,12,12],"right_children":[2,4,6,8,10,12,14,16,18,-1,20,-1,22,-1,-1,-1,-1,-1,-1,-1,-1,-1,-1],"split_conditions":[2.0285682E-3,3.084161E-2,3.304412E-3,2.57329E-1,-4.1811876E-3,5.8487634E-4,5.4685487E-3,9.02439E-1,7.31185E-4,7.468239E-2,6.713781E-2,7.397163E-2,3.9167687E-2,-5.5625755E-2,6.4052306E-2,7.054679E-2,3.4849467E-3,-3.9410405E-2,4.749794E-2,-3.2159355E-2,-4.019159E-3,5.9977166E-2,-3.725734E-2],"split_indices":[9,18,16,14,16,34,11,25,7,0,17,0,18,0,0,0,0,0,0,0,0,0,0],"split_type":[0,0,0,0,0,0,0,0,0,0,0,0,0,0,0,0,0,0,0,0,0,0,0],"sum_hessian":[5.708602E2,5.037326E2,6.712764E1,3.188807E1,4.7184454E2,4.8398468E1,1.8729174E1,1.7101173E1,1.4786895E1,7.1929536E0,4.6465158E2,3.8118103E1,1.0280364E1,1.49985285E1,3.7306457E0,1.4509013E1,2.5921602E0,7.533305E0,7.25359E0,6.907459E1,3.95577E2,4.4942427E0,5.7861214E0],"tree_param":{"num_deleted":"0","num_feature":"36","num_nodes":"23","size_leaf_vector":"1"}},{"base_weights":[6.993942E-3,-1.429152E-1,1.4320754E-1,-5.777789E-1,-4.7761675E-2,2.3872265E-1,-1.7023301E-1,5.531401E-2,-6.559056E-1,2.5756529E-2,-4.210779E-1,1.3689703E-1,7.3642665E-1,-4.2441067E-1,4.0911838E-1,-4.7533464E-2,6.2391847E-2,-5.709828E-2,2.1913545E-2,-8.091763E-3,2.9556874E-2,-4.230482E-2,5.760795E-2,4.37185E-2,3.4044078E-3,-4.52005E-2,6.879285E-2,-4.3482475E-2,1.0699844E-2,-1.2708409E-2,7.041189E-2],"categories":[],"categories_nodes":[],"categories_segments":[],"categories_sizes":[],"default_left":[0,0,0,0,0,0,0,0,0,0,0,0,0,0,0,0,0,0,0,0,0,0,0,0,0,0,0,0,0,0,0],"id":21,"left_children":[1,3,5,7,9,11,13,15,17,19,21,23,25,27,29,-1,-1,-1,-1,-1,-1,-1,-1,-1,-1,-1,-1,-1,-1,-1,-1],"loss_changes":[1.1231629E1,1.0808655E1,8.667612E0,2.3572512E0,5.937828E0,1.1113072E1,1.0170345E1,3.3231928E0,2.4454708E0,7.948045E0,4.756153E0,7.122216E0,6.488737E0,3.2425327E0,5.81427E0,0E0,0E0,0E0,0E0,0E0,0E0,0E0,0E0,0E0,0E0,0E0,0E0,0E0,0E0,0E0,0E0],"parents":[2147483647,0,0,1,1,2,2,3,3,4,4,5,5,6,6,7,7,8,8,9,9,10,10,11,11,12,12,13,13,14,14],"right_children":[2,4,6,8,10,12,14,16,18,20,22,24,26,28,30,-1,-1,-1,-1,-1,-1,-1,-1,-1,-1,-1,-1,-1,-1,-1,-1],"split_conditions":[2.8292374E1,-2.0537395E-3,1.2920023E-3,1.6408668E-1,1.0329406E-3,1.5622051E-3,1.5138653E-3,7.3634547E-1,8.208955E-1,8.4583083E-4,7.1428573E-1,-9.506868E-1,-5.3664455E-3,2.8335252E-3,1.9825707E-1,-4.7533464E-2,6.2391847E-2,-5.709828E-2,2.1913545E-2,-8.091763E-3,2.9556874E-2,-4.230482E-2,5.760795E-2,4.37185E-2,3.4044078E-3,-4.52005E-2,6.879285E-2,-4.3482475E-2,1.0699844E-2,-1.2708409E-2,7.041189E-2],"split_indices":[26,2,10,17,7,8,1,22,12,10,13,23,2,9,17,0,0,0,0,0,0,0,0,0,0,0,0,0,0,0,0],"split_type":[0,0,0,0,0,0,0,0,0,0,0,0,0,0,0,0,0,0,0,0,0,0,0,0,0,0,0,0,0,0,0],"sum_hessian":[5.4803754E2,2.6087915E2,2.871584E2,4.5924828E1,2.1495433E2,2.2027278E2,6.6885605E1,5.076869E0,4.0847958E1,1.8036546E2,3.4588867E1,1.8391959E2,3.635318E1,4.667529E1,2.0210318E1,2.772089E0,2.30478E0,3.8675266E1,2.1726904E0,1.3224374E2,4.8121716E1,3.2095512E1,2.493353E0,3.3535057E1,1.5038454E2,2.8405256E0,3.3512657E1,3.8487606E1,8.187684E0,9.462764E0,1.0747554E1],"tree_param":{"num_deleted":"0","num_feature":"36","num_nodes":"31","size_leaf_vector":"1"}},{"base_weights":[2.1168381E-2,1.8869163E-1,-2.0466061E-1,3.2458346E-2,5.776669E-1,-4.791612E-2,-4.831138E-2,6.652369E-1,-2.2119433E-1,-4.590026E-2,7.3635185E-1,-1.4590746E-1,7.161815E-1,2.060922E-2,8.60033E-2,8.08971E-2,-2.596082E-2,7.017512E-2,-4.2204518E-2,8.781818E-3,-3.32345E-2,1.0547864E-1,-4.1353673E-2],"categories":[],"categories_nodes":[],"categories_segments":[],"categories_sizes":[],"default_left":[0,0,0,0,0,0,0,0,0,0,0,0,0,0,0,0,0,0,0,0,0,0,0],"id":22,"left_children":[1,3,5,7,9,11,-1,13,15,-1,17,19,21,-1,-1,-1,-1,-1,-1,-1,-1,-1,-1],"loss_changes":[1.5999911E1,1.4732839E1,1.1245166E1,2.8113947E1,1.3120966E1,9.872395E0,0E0,8.093483E0,1.6260962E1,0E0,1.1413555E1,8.070966E0,1.1820446E1,0E0,0E0,0E0,0E0,0E0,0E0,0E0,0E0,0E0,0E0],"parents":[2147483647,0,0,1,1,2,2,3,3,4,4,5,5,7,7,8,8,10,10,11,11,12,12],"right_children":[2,4,6,8,10,12,-1,14,16,-1,18,20,22,-1,-1,-1,-1,-1,-1,-1,-1,-1,-1],"split_conditions":[-5.6822217E-5,1.7662768E-3,1.5264761E-3,3.2312897E-4,-4.2594242E-1,1.4816292E-3,-4.831138E-2,2.495056E-4,5.300632E-4,-4.590026E-2,7.68805E-2,5E-1,1.7460318E-1,2.060922E-2,8.60033E-2,8.08971E-2,-2.596082E-2,7.017512E-2,-4.2204518E-2,8.781818E-3,-3.32345E-2,1.0547864E-1,-4.1353673E-2],"split_indices":[1,9,8,6,20,8,0,6,11,0,19,24,13,0,0,0,0,0,0,0,0,0,0],"split_type":[0,0,0,0,0,0,0,0,0,0,0,0,0,0,0,0,0,0,0,0,0,0,0],"sum_hessian":[4.209037E2,2.4174107E2,1.7916261E2,1.7324149E2,6.84996E1,1.2945616E2,4.9706455E1,4.9108807E1,1.2413267E2,7.980113E0,6.051949E1,1.1545831E2,1.3997851E1,2.5436462E1,2.3672346E1,8.921739E0,1.1521093E2,5.4727215E1,5.7922745E0,5.955498E1,5.5903328E1,9.357833E0,4.640018E0],"tree_param":{"num_deleted":"0","num_feature":"36","num_nodes":"23","size_leaf_vector":"1"}},{"base_weights":[-3.8400253E-3,4.174076E-1,-6.704466E-2,5.889791E-1,-5.585468E-1,-9.016032E-2,5.0842935E-1,1.2474439E-2,7.612082E-1,-6.67091E-3,-5.33869E-2,1.319539E-1,-1.5858077E-1,1.5690045E-1,8.991321E-1,-2.670364E-2,4.7137346E-2,7.2483435E-2,-4.0628132E-3,2.2939613E-2,-2.4943287E-2,-3.86022E-2,-8.250062E-3,5.205049E-2,-3.1428877E-2,3.342204E-2,8.0982715E-2],"categories":[],"categories_nodes":[],"categories_segments":[],"categories_sizes":[],"default_left":[0,0,0,0,0,0,0,0,0,0,0,0,0,0,0,0,0,0,0,0,0,0,0,0,0,0,0],"id":23,"left_children":[1,3,5,7,9,11,13,15,17,-1,-1,19,21,23,25,-1,-1,-1,-1,-1,-1,-1,-1,-1,-1,-1,-1],"loss_changes":[1.4953844E1,1.2599026E1,6.5417237E0,6.2268047E0,5.3723073E-1,7.1683598E0,2.4695592E0,3.2850296E0,5.731512E0,0E0,0E0,7.7346377E0,6.4176235E0,3.3002954E0,5.5909157E-2,0E0,0E0,0E0,0E0,0E0,0E0,0E0,0E0,0E0,0E0,0E0,0E0],"parents":[2147483647,0,0,1,1,2,2,3,3,4,4,5,5,6,6,7,7,8,8,11,11,12,12,13,13,14,14],"right_children":[2,4,6,8,10,12,14,16,18,-1,-1,20,22,24,26,-1,-1,-1,-1,-1,-1,-1,-1,-1,-1,-1,-1],"split_conditions":[3.9167687E-2,1.0696989E0,3.390593E-1,1.052813E-3,2.1686748E-1,7.1428575E-2,1E0,-8.136114E-2,2.8189986E-3,-6.67091E-3,-5.33869E-2,9E-1,6.713781E-2,-5.939052E-1,-1.0306658E-3,-2.670364E-2,4.7137346E-2,7.2483435E-2,-4.0628132E-3,2.2939613E-2,-2.4943287E-2,-3.86022E-2,-8.250062E-3,5.205049E-2,-3.1428877E-2,3.342204E-2,8.0982715E-2],"split_indices":[18,22,18,9,14,14,31,20,16,0,0,24,17,23,0,0,0,0,0,0,0,0,0,0,0,0,0],"split_type":[0,0,0,0,0,0,0,0,0,0,0,0,0,0,0,0,0,0,0,0,0,0,0,0,0,0,0],"sum_hessian":[5.5959973E2,7.2277695E1,4.8732205E2,6.1808376E1,1.0469321E1,4.6931396E2,1.800809E1,1.4464293E1,4.734408E1,2.2795246E0,8.189796E0,1.1030401E2,3.5900995E2,1.0217043E1,7.791045E0,9.301194E0,5.163098E0,4.007933E1,7.264753E0,8.2039894E1,2.8264114E1,5.1348778E1,3.076612E2,5.2861605E0,4.930883E0,2.37591E0,5.4151354E0],"tree_param":{"num_deleted":"0","num_feature":"36","num_nodes":"27","size_leaf_vector":"1"}},{"base_weights":[-2.2537338E-2,6.469596E-2,-2.1544492E-1,-3.622567E-2,3.6897886E-1,-2.7020213E-1,6.087685E-1,-2.869031E-1,6.1331354E-2,4.513846E-2,5.4132897E-1,6.0312774E-2,-3.1626052E-1,6.4420246E-2,5.1583615E-3,-3.1926136E-2,2.3953808E-2,-5.9016556E-3,2.7511925E-2,-5.9441816E-2,2.3463022E-2,5.434544E-2,-2.8191421E-2,-4.17342E-2,-1.09612625E-2],"categories":[],"categories_nodes":[],"categories_segments":[],"categories_sizes":[],"default_left":[0,0,0,0,0,0,0,0,0,0,0,0,0,0,0,0,0,0,0,0,0,0,0,0,0],"id":24,"left_children":[1,3,5,7,9,11,13,15,17,19,21,-1,23,-1,-1,-1,-1,-1,-1,-1,-1,-1,-1,-1,-1],"loss_changes":[9.132349E0,1.1495335E1,7.7899895E0,6.9063034E0,5.1782026E0,7.744335E0,1.106626E0,5.3212333E0,7.7977304E0,6.763752E0,7.730751E0,0E0,5.5613794E0,0E0,0E0,0E0,0E0,0E0,0E0,0E0,0E0,0E0,0E0,0E0,0E0],"parents":[2147483647,0,0,1,1,2,2,3,3,4,4,5,5,6,6,7,7,8,8,9,9,10,10,12,12],"right_children":[2,4,6,8,10,12,14,16,18,20,22,-1,24,-1,-1,-1,-1,-1,-1,-1,-1,-1,-1,-1,-1],"split_conditions":[1.5931848E-3,8.437241E-4,5.438151E-3,-3.7044242E-1,-1.5910388E-3,6.656262E-4,4.762835E-3,1.0869565E-3,6.0148304E-4,4.390244E-1,6.095865E1,6.0312774E-2,9.108527E-2,6.4420246E-2,5.1583615E-3,-3.1926136E-2,2.3953808E-2,-5.9016556E-3,2.7511925E-2,-5.9441816E-2,2.3463022E-2,5.434544E-2,-2.8191421E-2,-4.17342E-2,-1.09612625E-2],"split_indices":[9,10,16,21,16,7,7,1,6,25,26,0,18,0,0,0,0,0,0,0,0,0,0,0,0],"split_type":[0,0,0,0,0,0,0,0,0,0,0,0,0,0,0,0,0,0,0,0,0,0,0,0,0],"sum_hessian":[5.408605E2,3.7289917E2,1.6796132E2,2.8068515E2,9.221401E1,1.5812813E2,9.833185E0,7.808952E1,2.0259563E2,3.246854E1,5.9745472E1,6.1441393E0,1.51984E2,6.8727207E0,2.960464E0,6.581702E1,1.2272502E1,1.375627E2,6.503293E1,7.2972074E0,2.5171333E1,5.196246E1,7.783012E0,6.993131E1,8.205268E1],"tree_param":{"num_deleted":"0","num_feature":"36","num_nodes":"25","size_leaf_vector":"1"}},{"base_weights":[-6.031179E-3,5.130971E-1,-7.146661E-2,-2.2937533E-1,8.042662E-1,-3.077108E-1,7.275218E-2,-4.9203932E-2,8.176105E-2,-4.049731E-2,9.264294E-1,-4.353456E-1,4.5756182E-1,2.7171016E-1,-2.240649E-1,1.9178755E-3,8.3937995E-2,-3.7989505E-2,6.717073E-2,7.956571E-2,-4.1698538E-2,6.617534E-2,8.332476E-3,-4.1589405E-2,3.6850415E-2],"categories":[],"categories_nodes":[],"categories_segments":[],"categories_sizes":[],"default_left":[0,0,0,0,0,0,0,0,0,0,0,0,0,0,0,0,0,0,0,0,0,0,0,0,0],"id":25,"left_children":[1,3,5,7,9,11,13,-1,-1,-1,15,17,19,21,23,-1,-1,-1,-1,-1,-1,-1,-1,-1,-1],"loss_changes":[1.4326122E1,1.0390601E1,1.2780107E1,7.422459E0,5.933468E0,1.4081754E1,1.3839227E1,0E0,0E0,0E0,3.4740334E0,6.5628624E0,1.1453414E1,1.2956884E1,1.931416E1,0E0,0E0,0E0,0E0,0E0,0E0,0E0,0E0,0E0,0E0],"parents":[2147483647,0,0,1,1,2,2,3,3,4,4,5,5,6,6,10,10,11,11,12,12,13,13,14,14],"right_children":[2,4,6,8,10,12,14,-1,-1,-1,16,18,20,22,24,-1,-1,-1,-1,-1,-1,-1,-1,-1,-1],"split_conditions":[7.256057E-4,-2.1154843E-1,-5.06089E-5,6.99618E1,5.683998E-4,3.1690744E-3,9.154723E-2,-4.9203932E-2,8.176105E-2,-4.049731E-2,1.8412325E1,8.4E-1,-2.3587602E-3,5.7692308E-2,3.68E-1,1.9178755E-3,8.3937995E-2,-3.7989505E-2,6.717073E-2,7.956571E-2,-4.1698538E-2,6.617534E-2,8.332476E-3,-4.1589405E-2,3.6850415E-2],"split_indices":[8,20,34,26,8,11,21,0,0,0,26,17,2,13,14,0,0,0,0,0,0,0,0,0,0],"split_type":[0,0,0,0,0,0,0,0,0,0,0,0,0,0,0,0,0,0,0,0,0,0,0,0,0],"sum_hessian":[4.196569E2,4.6210133E1,3.7344675E2,1.3076832E1,3.31333E1,1.4112949E2,2.3231726E2,1.0384782E1,2.6920497E0,2.5572376E0,3.0576061E1,1.2132552E2,1.9803965E1,1.3913737E2,9.3179886E1,3.805287E0,2.6770775E1,1.182863E2,3.0392234E0,1.2777526E1,7.0264378E0,3.1330969E1,1.07806404E2,6.52369E1,2.7942986E1],"tree_param":{"num_deleted":"0","num_feature":"36","num_nodes":"25","size_leaf_vector":"1"}},{"base_weights":[-1.983306E-2,1.5554555E-1,-1.3416566E-1,-3.1372588E-2,5.111705E-1,2.2820061E-1,-2.3164499E-1,4.7171663E-2,-6.4288205E-1,7.2673124E-1,-5.3245034E-2,-5.2403986E-1,3.5144028E-1,5.0229216E-1,-2.768119E-1,-3.8903207E-2,1.0112822E-2,-5.981144E-3,-5.7547715E-2,6.680417E-2,1.0468761E-2,-5.5882506E-2,9.637359E-3,5.0116513E-2,7.248159E-4,-1.7569782E-2,7.668428E-2,-1.0385383E-2,-4.0113688E-2],"categories":[],"categories_nodes":[],"categories_segments":[],"categories_sizes":[],"default_left":[0,0,0,0,0,0,0,0,0,0,0,0,0,0,0,0,0,0,0,0,0,0,0,0,0,0,0,0,0],"id":26,"left_children":[1,3,5,7,9,11,13,15,17,19,-1,21,23,25,27,-1,-1,-1,-1,-1,-1,-1,-1,-1,-1,-1,-1,-1,-1],"loss_changes":[1.1074007E1,1.4507456E1,1.1859024E1,6.939034E0,1.9549984E1,6.7992187E0,8.886477E0,5.489004E0,6.604161E-1,4.022026E0,0E0,1.258913E0,5.823704E0,5.3663335E0,8.163374E0,0E0,0E0,0E0,0E0,0E0,0E0,0E0,0E0,0E0,0E0,0E0,0E0,0E0,0E0],"parents":[2147483647,0,0,1,1,2,2,3,3,4,4,5,5,6,6,7,7,8,8,9,9,11,11,12,12,13,13,14,14],"right_children":[2,4,6,8,10,12,14,16,18,20,-1,22,24,26,28,-1,-1,-1,-1,-1,-1,-1,-1,-1,-1,-1,-1,-1,-1],"split_conditions":[1.0512414E-1,1.0590084E-3,7.1428575E-2,9.512195E-1,3.8528766E-3,3.5042736E-1,-3.8846834E-3,-1.5996572E-3,-6.8777765E-4,5.8487634E-4,-5.3245034E-2,8.9489884E-4,-1.4417014E-1,1.534483E-3,8.676415E-4,-3.8903207E-2,1.0112822E-2,-5.981144E-3,-5.7547715E-2,6.680417E-2,1.0468761E-2,-5.5882506E-2,9.637359E-3,5.0116513E-2,7.248159E-4,-1.7569782E-2,7.668428E-2,-1.0385383E-2,-4.0113688E-2],"split_indices":[18,7,14,25,16,12,2,2,3,34,0,7,19,9,10,0,0,0,0,0,0,0,0,0,0,0,0,0,0],"split_type":[0,0,0,0,0,0,0,0,0,0,0,0,0,0,0,0,0,0,0,0,0,0,0,0,0,0,0,0,0],"sum_hessian":[5.5023773E2,2.170054E2,3.3323233E2,1.4283987E2,7.416552E1,7.035523E1,2.628771E2,1.2739918E2,1.54407015E1,6.3006115E1,1.1159401E1,9.445967E0,6.0909267E1,1.4653007E1,2.4822409E2,1.5811777E1,1.115874E2,2.066289E0,1.3374413E1,5.2974678E1,1.0031436E1,7.3674946E0,2.0784717E0,3.3317413E1,2.7591856E1,5.8753877E0,8.777619E0,1.5098834E2,9.723575E1],"tree_param":{"num_deleted":"0","num_feature":"36","num_nodes":"29","size_leaf_vector":"1"}}]},"name":"gbtree"},"learner_model_param":{"base_score":"[1.2578654E-1,-3.1876707E-1,1.929807E-1]","boost_from_average":"1","num_class":"3","num_feature":"36","num_target":"1"},"objective":{"name":"multi:softprob","softmax_multiclass_param":{"num_class":"3"}}},"version":[3,2,0]}